/*
 * Copyright (c) 2025 EdgeImpulse Inc.
 *
 * Generated by Edge Impulse and licensed under the applicable Edge Impulse
 * Terms of Service. Community and Professional Terms of Service
 * (https://edgeimpulse.com/legal/terms-of-service) or Enterprise Terms of
 * Service (https://edgeimpulse.com/legal/enterprise-terms-of-service),
 * according to your product plan subscription (the “License”).
 *
 * This software, documentation and other associated files (collectively referred
 * to as the “Software”) is a single SDK variation generated by the Edge Impulse
 * platform and requires an active paid Edge Impulse subscription to use this
 * Software for any purpose.
 *
 * You may NOT use this Software unless you have an active Edge Impulse subscription
 * that meets the eligibility requirements for the applicable License, subject to
 * your full and continued compliance with the terms and conditions of the License,
 * including without limitation any usage restrictions under the applicable License.
 *
 * If you do not have an active Edge Impulse product plan subscription, or if use
 * of this Software exceeds the usage limitations of your Edge Impulse product plan
 * subscription, you are not permitted to use this Software and must immediately
 * delete and erase all copies of this Software within your control or possession.
 * Edge Impulse reserves all rights and remedies available to enforce its rights.
 *
 * Unless required by applicable law or agreed to in writing, the Software is
 * distributed on an "AS IS" BASIS, WITHOUT WARRANTIES OR CONDITIONS OF ANY KIND,
 * either express or implied. See the License for the specific language governing
 * permissions, disclaimers and limitations under the License.
 */
// Generated on: 05.11.2025 10:59:54

#include <stdio.h>
#include <stdlib.h>
#include "edge-impulse-sdk/tensorflow/lite/c/builtin_op_data.h"
#include "edge-impulse-sdk/tensorflow/lite/c/common.h"
#include "edge-impulse-sdk/tensorflow/lite/micro/micro_mutable_op_resolver.h"
#include "edge-impulse-sdk/porting/ei_classifier_porting.h"

#if EI_CLASSIFIER_PRINT_STATE
#if defined(__cplusplus) && EI_C_LINKAGE == 1
extern "C" {
    extern void ei_printf(const char *format, ...);
}
#else
extern void ei_printf(const char *format, ...);
#endif
#endif

#define STRINGIZE(x) #x
#define STRINGIZE_VALUE_OF(x) STRINGIZE(x)

#if defined (__GNUC__)  /* GNU compiler */
#define ALIGN(X) __attribute__((aligned(X)))
#define DEFINE_SECTION(x) __attribute__((section(x)))
#elif defined (_MSC_VER)
#define ALIGN(X) __declspec(align(X))
#elif defined (__TASKING__) /* TASKING Compiler */
#define ALIGN(X) __align(X)
#define DEFINE_SECTION(x) __attribute__((section(x)))
#elif defined (__ARMCC_VERSION) /* Arm Compiler */
#define ALIGN(X) __ALIGNED(x)
#define DEFINE_SECTION(x) __attribute__((section(x)))
#elif defined (__ICCARM__) /* IAR Compiler */
#define ALIGN(x) __attribute__((aligned(x)))
#define DEFINE_SECTION(x) __attribute__((section(x)))
#elif defined (__clang__) /* LLVM/Clang Compiler */
#define ALIGN(X) __ALIGNED(x)
#define DEFINE_SECTION(x) __attribute__((section(x)))
#endif

#if defined(EI_MODEL_SECTION) && (defined(__GNUC__) || defined(__clang__))
#define MODEL_SECTION(X) __attribute__((section(STRINGIZE_VALUE_OF(X))))
#else
#define MODEL_SECTION(X)
#endif

#ifndef EI_MAX_SCRATCH_BUFFER_COUNT
#ifndef CONFIG_IDF_TARGET_ESP32S3
#define EI_MAX_SCRATCH_BUFFER_COUNT 14
#else
#define EI_MAX_SCRATCH_BUFFER_COUNT 28
#endif // CONFIG_IDF_TARGET_ESP32S3
#endif // EI_MAX_SCRATCH_BUFFER_COUNT

#ifndef EI_MAX_OVERFLOW_BUFFER_COUNT
#define EI_MAX_OVERFLOW_BUFFER_COUNT 10
#endif // EI_MAX_OVERFLOW_BUFFER_COUNT

using namespace tflite;
using namespace tflite::ops;
using namespace tflite::ops::micro;

namespace {

#if defined(EI_CLASSIFIER_ALLOCATION_STATIC_HIMAX) || defined(EI_CLASSIFIER_ALLOCATION_STATIC_HIMAX_GNU)
constexpr int kTensorArenaSize = 238544;
#else
constexpr int kTensorArenaSize = 237520;
#endif

#if defined(EI_CLASSIFIER_ALLOCATION_STATIC)
#if defined (EI_TENSOR_ARENA_LOCATION)
uint8_t tensor_arena[kTensorArenaSize] ALIGN(16) DEFINE_SECTION(STRINGIZE_VALUE_OF(EI_TENSOR_ARENA_LOCATION));
#else
uint8_t tensor_arena[kTensorArenaSize] ALIGN(16);
#endif
#elif defined(EI_CLASSIFIER_ALLOCATION_STATIC_HIMAX)
#pragma Bss(".tensor_arena")
uint8_t tensor_arena[kTensorArenaSize] ALIGN(16);
#pragma Bss()
#elif defined(EI_CLASSIFIER_ALLOCATION_STATIC_HIMAX_GNU)
uint8_t tensor_arena[kTensorArenaSize] ALIGN(16) __attribute__((section(".tensor_arena")));
#else
#define EI_CLASSIFIER_ALLOCATION_HEAP 1
uint8_t* tensor_arena = NULL;
#endif

static uint8_t* tensor_boundary;
static uint8_t* current_location;

template <int SZ, class T> struct TfArray {
  int sz; T elem[SZ];
};

enum used_operators_e {
  OP_CONV_2D, OP_DEPTHWISE_CONV_2D, OP_ADD, OP_PAD, OP_SOFTMAX,  OP_LAST
};

struct TensorInfo_t { // subset of TfLiteTensor used for initialization from constant memory
  TfLiteAllocationType allocation_type;
  TfLiteType type;
  void* data;
  TfLiteIntArray* dims;
  size_t bytes;
  TfLiteQuantization quantization;
};

typedef struct {
  TfLiteTensor tensor;
  int16_t index;
} TfLiteTensorWithIndex;

typedef struct {
  TfLiteEvalTensor tensor;
  int16_t index;
} TfLiteEvalTensorWithIndex;

TfLiteContext ctx{};
static const int MAX_TFL_TENSOR_COUNT = 4;
static TfLiteTensorWithIndex tflTensors[MAX_TFL_TENSOR_COUNT];
static const int MAX_TFL_EVAL_COUNT = 4;
static TfLiteEvalTensorWithIndex tflEvalTensors[MAX_TFL_EVAL_COUNT];
TfLiteRegistration registrations[OP_LAST];

namespace g0 {
const TfArray<4, int> tensor_dimension0 = { 4, { 1,96,96,1 } };
const TfArray<1, float> quant0_scale = { 1, { 0.0039125415496528149, } };
const TfArray<1, int> quant0_zero = { 1, { -128 } };
const TfLiteAffineQuantization quant0 = { (TfLiteFloatArray*)&quant0_scale, (TfLiteIntArray*)&quant0_zero, 0 };
const MODEL_SECTION(EI_MODEL_SECTION) ALIGN(16) int32_t tensor_data1[4*2] = { 
  0, 0, 
  0, 1, 
  0, 1, 
  0, 0, 
};
const TfArray<2, int> tensor_dimension1 = { 2, { 4,2 } };
const MODEL_SECTION(EI_MODEL_SECTION) ALIGN(16) int32_t tensor_data2[4] = { 14870, -26238, -22877, -21872, };
const TfArray<1, int> tensor_dimension2 = { 1, { 4 } };
const TfArray<4, float> quant2_scale = { 4, { 0.0003519000019878149, 0.00022762805747333914, 0.00025345024187117815, 0.00026527320733293891, } };
const TfArray<4, int> quant2_zero = { 4, { 0,0,0,0 } };
const TfLiteAffineQuantization quant2 = { (TfLiteFloatArray*)&quant2_scale, (TfLiteIntArray*)&quant2_zero, 0 };
const MODEL_SECTION(EI_MODEL_SECTION) ALIGN(16) int8_t tensor_data3[4*1*1*32] = { 
  /* [0][0][][] */ 34,-60,-31,-63,80,-20,9,-50,96,-10,16,17,12,-17,12,-57,-9,-93,-52,28,1,60,27,62,-41,24,8,-41,127,-53,26,23, 
  /* [1][0][][] */ -30,83,-66,8,-23,31,87,52,-41,-93,-83,38,49,-50,113,-88,114,-64,0,-34,22,-38,-127,3,6,-52,45,-61,-99,-98,-17,-24, 
  /* [2][0][][] */ -56,85,28,65,-8,-6,77,34,-46,-64,69,-44,-103,72,-54,64,39,78,51,-39,3,35,-32,-5,21,-13,70,-127,-55,16,52,41, 
  /* [3][0][][] */ 16,-58,66,6,13,90,28,3,-10,-60,25,93,44,1,-69,4,85,-57,65,17,-62,15,-20,-2,65,-18,-98,98,-117,127,24,44, 
};
const TfArray<4, int> tensor_dimension3 = { 4, { 4,1,1,32 } };
const TfArray<4, float> quant3_scale = { 4, { 0.0059829344972968102, 0.0038700872100889683, 0.0043091108091175556, 0.0045101228170096874, } };
const TfLiteAffineQuantization quant3 = { (TfLiteFloatArray*)&quant3_scale, (TfLiteIntArray*)&g0::quant2_zero, 0 };
const MODEL_SECTION(EI_MODEL_SECTION) ALIGN(16) int32_t tensor_data4[32] = { 1485, 78, -266, -199, -1431, 3, 102, -209, -751, -808, 280, 107, 724, -37, -1040, -673, 116, -608, -1463, -1152, -1696, -894, 2339, -1162, -13, -1302, 492, -218, 2883, -752, -921, -113, };
const TfArray<1, int> tensor_dimension4 = { 1, { 32 } };
const TfArray<32, float> quant4_scale = { 32, { 8.2145437772851437e-05, 8.622198220109567e-05, 6.9644382165279239e-05, 7.1677946834824979e-05, 6.3713028794154525e-05, 7.4473224231041968e-05, 6.032513192621991e-05, 7.2391943831462413e-05, 6.7783294070977718e-05, 7.2139468102250248e-05, 6.5631247707642615e-05, 7.8062737884465605e-05, 6.802407733630389e-05, 6.6782828071154654e-05, 6.4060499425977468e-05, 6.0251684772083536e-05, 7.0313231844920665e-05, 7.1085363742895424e-05, 6.1927268689032644e-05, 5.59100772079546e-05, 6.1346021539065987e-05, 6.0213307733647525e-05, 6.9839654315728694e-05, 6.312173354672268e-05, 6.6482360125519335e-05, 6.2097278714645654e-05, 9.3457827460952103e-05, 7.7236843935679644e-05, 9.2517424491234124e-05, 9.7559473942965269e-05, 5.7233573897974566e-05, 6.964455678826198e-05, } };
const TfArray<32, int> quant4_zero = { 32, { 0,0,0,0,0,0,0,0,0,0,0,0,0,0,0,0,0,0,0,0,0,0,0,0,0,0,0,0,0,0,0,0 } };
const TfLiteAffineQuantization quant4 = { (TfLiteFloatArray*)&quant4_scale, (TfLiteIntArray*)&quant4_zero, 0 };
const MODEL_SECTION(EI_MODEL_SECTION) ALIGN(16) int8_t tensor_data5[32*1*1*48] = { 
  /* [0][0][][] */ -21,-16,77,28,49,-32,-73,-66,-3,-45,-44,16,62,-5,-27,55,-67,6,-48,-46,-16,-35,52,62,-63,9,83,-46,86,-8,86,-27,89,-4,-25,109,-48,-33,66,80,93,-67,-47,72,51,-75,127,72, 
  /* [1][0][][] */ -18,-31,-50,-47,-36,74,0,15,60,-123,-86,80,70,-31,26,-2,127,-16,22,81,-37,-1,12,8,48,43,-4,109,27,12,38,-46,57,2,12,6,48,54,-29,-87,-40,-16,-10,-46,-13,53,-33,-42, 
  /* [2][0][][] */ 35,16,-32,98,-18,-28,103,73,-30,115,-36,29,5,23,64,-80,-93,-66,-14,55,-97,-33,81,48,-54,22,120,28,-48,37,38,41,-27,4,-127,-75,-107,73,74,2,-101,3,33,55,-88,85,-8,-113, 
  /* [3][0][][] */ 60,-45,38,-8,-67,61,-66,38,67,15,37,-7,87,81,58,-11,78,72,-72,18,75,-72,-63,-80,-41,-61,-39,127,60,-80,37,-9,-33,-36,-8,-17,-66,-7,17,31,-23,-62,-63,26,44,49,-64,-98, 
  /* [4][0][][] */ 10,91,-30,16,-48,-54,-6,-21,17,47,-35,16,-8,-59,-43,-77,-61,-37,-87,-21,57,-108,42,-10,-47,-25,24,-82,-71,-4,-86,-77,30,67,-20,-122,-68,-34,-127,32,-72,-80,-97,-103,-4,53,15,19, 
  /* [5][0][][] */ 89,-76,68,66,38,-60,47,50,127,-48,6,-61,-13,90,41,22,48,41,-30,84,37,26,0,-4,-26,-66,-33,-56,34,50,23,-63,-56,11,-69,22,-101,-24,29,-5,-60,0,40,90,17,20,67,-65, 
  /* [6][0][][] */ 41,-68,113,58,-70,-22,26,76,40,-68,16,-67,97,60,124,-127,92,13,21,107,-57,-106,85,58,3,-42,1,-3,-2,-70,41,-61,-78,-124,-29,-91,1,55,-107,50,87,46,34,-3,-58,126,-41,-56, 
  /* [7][0][][] */ 103,1,-27,-56,-63,114,-2,6,127,-11,-79,18,59,-70,44,-2,100,16,7,91,41,19,-26,58,-4,100,43,85,-44,101,-31,23,28,-19,56,67,-76,75,-30,-65,67,-72,65,58,66,22,104,-104, 
  /* [8][0][][] */ -22,90,-50,-75,73,-14,-75,-43,-24,28,50,81,-19,-33,-87,1,-78,57,-72,-6,2,-29,52,67,-86,108,14,68,-67,-11,-65,77,60,-26,19,-27,95,-5,-23,127,73,76,-115,-108,-20,-47,78,88, 
  /* [9][0][][] */ -17,71,68,17,54,-100,-56,-108,12,19,-26,24,-38,-78,-96,-36,35,-18,-93,-71,-15,57,-100,-38,127,-19,-27,1,-27,-64,-84,59,29,-18,3,-33,-75,-7,-44,5,18,-11,22,-87,42,-4,-35,23, 
  /* [10][0][][] */ -49,28,90,-31,-21,109,110,43,47,33,7,-69,95,87,-25,19,-43,66,-127,-39,-38,26,51,-35,-27,67,-58,-55,-13,33,-104,-82,104,93,105,64,-28,21,-43,41,-26,121,-69,3,-115,-15,-35,-75, 
  /* [11][0][][] */ 103,7,1,80,95,55,63,35,127,106,-45,67,-55,-38,37,-47,-27,-71,76,44,44,40,9,-56,-19,-111,-26,35,41,29,41,3,-66,-35,10,46,-70,49,-21,-64,-15,117,-39,14,20,-47,-18,-81, 
  /* [12][0][][] */ 67,57,-20,2,96,51,-12,43,1,87,6,54,-41,23,80,-83,-24,2,19,-31,58,0,11,93,30,-39,86,-81,46,67,5,127,-64,-49,-32,27,9,-53,-33,-29,115,46,-76,7,53,-68,23,114, 
  /* [13][0][][] */ 75,-111,78,88,41,91,59,64,35,-123,-43,-32,96,60,50,-67,-97,-59,-124,29,8,-24,91,-27,-122,60,44,64,-38,-127,11,-3,67,61,-6,14,-59,-20,-9,63,-61,71,-26,46,-109,58,-56,-57, 
  /* [14][0][][] */ -76,-102,52,32,51,-52,-35,-127,-88,-53,44,57,-43,-95,-98,-95,-28,-74,-3,-5,-56,6,-27,24,-69,-66,-59,7,-120,-118,-77,14,58,-45,-53,-19,62,80,11,-52,-21,-123,3,46,44,-125,37,-92, 
  /* [15][0][][] */ -2,-25,-30,70,74,-73,52,-93,49,11,-109,10,91,40,-88,-89,-13,-5,-127,22,10,13,51,100,25,86,61,126,36,17,20,-119,19,0,-65,-40,-48,91,89,-1,-3,127,-46,38,-32,-35,-45,-99, 
  /* [16][0][][] */ -29,-26,92,-48,36,118,-15,46,88,63,-76,58,-7,-24,-22,-61,127,68,78,65,101,57,-41,52,27,48,-50,80,-67,43,35,19,-84,59,45,53,-30,52,-45,-78,21,-20,69,82,89,98,119,-28, 
  /* [17][0][][] */ 23,-80,22,52,-55,-78,-56,-80,34,-77,42,43,80,64,-90,28,5,33,53,90,-98,-18,-10,-41,-13,77,-32,59,85,-61,-67,31,-36,-42,20,-21,-30,69,-86,10,-88,-43,-15,43,-19,45,-36,-127, 
  /* [18][0][][] */ -116,47,61,-96,-43,-127,-120,-27,-30,32,-120,-74,-51,-3,21,-72,-21,-56,11,-53,50,-73,-16,-100,-10,-110,-38,73,0,-5,-35,1,17,-64,-123,-120,-60,0,-68,30,-64,-28,-74,-34,-127,-13,-19,-43, 
  /* [19][0][][] */ -6,4,50,21,31,-97,78,65,69,-66,7,-38,-113,8,-77,41,44,-127,78,33,-48,53,-76,1,62,-99,6,-85,-106,-124,-88,19,57,-95,7,-21,-17,-86,-75,-117,23,-56,-101,-11,-108,5,112,-116, 
  /* [20][0][][] */ -47,38,24,43,-108,40,-20,12,-22,-25,-103,-27,-36,39,0,-91,-47,-73,-95,-66,-20,-75,-105,-100,46,-94,-122,5,-15,-26,-70,62,62,-2,-51,12,4,-58,-46,-114,-105,-64,-116,-127,-55,-94,-85,61, 
  /* [21][0][][] */ 68,48,51,-98,66,-78,44,-8,-30,-56,-90,17,-20,24,-68,-63,-56,-48,4,-30,73,-66,43,-94,29,-101,-3,72,-8,-19,-32,-43,36,8,-104,-127,79,64,-127,-42,-33,-13,1,25,-113,-96,-50,64, 
  /* [22][0][][] */ 23,-3,-33,-29,94,-67,89,55,-96,73,-31,-73,127,-79,-75,-53,4,88,-80,-38,92,0,116,50,51,6,-70,77,-17,-73,23,-38,66,103,52,113,35,29,89,-25,56,18,41,111,48,-104,84,72, 
  /* [23][0][][] */ 26,-97,-23,21,54,-126,-25,-116,25,-94,47,35,-13,-121,-13,-58,53,-58,-121,58,50,-99,60,-58,-44,-41,39,-7,32,10,31,-62,-65,8,-12,0,55,-34,-125,37,-120,-23,-21,-127,-88,-102,107,-6, 
  /* [24][0][][] */ -56,-110,-88,-86,-64,-96,-35,-66,94,127,41,26,82,61,-19,-106,-80,32,26,-41,89,-73,-55,-44,59,-41,58,42,84,55,10,-45,-2,-29,27,26,-60,-71,33,-13,-59,-124,100,7,30,-20,47,27, 
  /* [25][0][][] */ -107,-49,-97,-39,61,-94,-121,14,9,-114,-57,-8,32,-30,-127,46,-96,21,-2,-127,27,44,-41,-81,-11,-65,-119,19,38,-111,6,70,55,-125,7,30,59,-83,-52,3,-101,54,-125,-19,55,3,52,1, 
  /* [26][0][][] */ 49,-104,-11,-36,-61,14,4,8,-53,-102,70,71,-7,-37,22,-29,127,38,-40,-28,13,57,59,-3,40,75,29,76,44,16,-70,5,4,-70,-26,-55,-12,80,-34,49,-51,27,46,21,-33,81,-35,66, 
  /* [27][0][][] */ -2,-77,-41,-118,-50,-65,-5,-9,87,115,25,-102,-50,67,76,-98,-3,-35,61,-62,-46,-10,-37,-26,-43,24,-127,6,45,43,9,3,1,21,-119,-23,-99,-22,-82,88,-13,-29,58,-1,99,20,80,4, 
  /* [28][0][][] */ 53,34,72,43,-14,-70,-25,-28,-53,-52,93,98,21,-31,42,112,38,115,-8,52,32,89,15,-44,-79,81,-24,-26,-7,-30,75,63,-22,27,103,109,80,1,63,84,127,3,-11,36,-56,2,7,118, 
  /* [29][0][][] */ 44,47,49,9,-62,43,-105,10,34,-4,-83,-81,12,-53,-47,-66,-54,40,-10,-17,-71,-45,27,47,-65,-30,11,-28,-77,-39,34,-25,57,44,-65,-53,-33,24,-13,-41,-5,127,-33,87,-37,35,-28,-32, 
  /* [30][0][][] */ 8,-61,-80,25,-112,13,-79,-35,83,-41,-13,-54,-98,-11,31,8,-5,21,73,-119,31,-115,-127,-3,-112,17,-71,87,-13,-117,-102,-12,-80,-66,-116,-62,-6,-34,-8,19,70,-85,-36,71,85,-64,92,50, 
  /* [31][0][][] */ 70,-98,40,89,40,62,-26,-74,7,-1,-79,-84,67,-82,-29,76,-94,-77,21,47,42,23,-29,98,17,-81,37,59,-44,-67,25,78,14,14,-79,-5,72,-15,-63,-127,49,-30,-11,51,0,-44,-45,-4, 
};
const TfArray<4, int> tensor_dimension5 = { 4, { 32,1,1,48 } };
const TfArray<32, float> quant5_scale = { 32, { 0.003491181181743741, 0.0036644341889768839, 0.0029598861001431942, 0.0030463128350675106, 0.0027078036218881607, 0.0031651121098548174, 0.0025638181250542402, 0.0030766574200242758, 0.0028807900380343199, 0.0030659271869808435, 0.0027893281076103449, 0.0033176662400364876, 0.0028910231776535511, 0.0028382702730596066, 0.002722571138292551, 0.0025606965646147728, 0.0029883121605962515, 0.0030211277771741152, 0.0026319089811295271, 0.0023761782795190811, 0.0026072058826684952, 0.0025590655859559774, 0.0029681851156055927, 0.0026826737448573112, 0.0028255002107471228, 0.0026391344144940376, 0.0039719576016068459, 0.0032825658563524485, 0.0039319903589785099, 0.0041462774388492107, 0.0024324269033968449, 0.0029598935507237911, } };
const TfLiteAffineQuantization quant5 = { (TfLiteFloatArray*)&quant5_scale, (TfLiteIntArray*)&g0::quant4_zero, 0 };
const MODEL_SECTION(EI_MODEL_SECTION) ALIGN(16) int32_t tensor_data6[48] = { 1393, -584, 4260, 1876, 1711, -31, 1092, 4401, -2597, -1292, -1302, 5723, 3993, 2254, 6489, -4084, -2732, 12612, 2892, 7024, 4767, 18580, 27817, 707, -2983, 1459, -1304, -1372, 1710, 1257, 5558, 9079, -1182, 320, 11641, 2753, 4762, 2327, 1643, -521, 2663, -1753, 6444, -612, -300, 2706, -1723, 5492, };
const TfArray<1, int> tensor_dimension6 = { 1, { 48 } };
const TfArray<48, float> quant6_scale = { 48, { 0.00024222441425081342, 0.00030755443731322885, 0.00017080175166483968, 0.00023870295262895525, 0.00026152367354370654, 0.00024215973098762333, 0.00021954512340016663, 0.00016187045548576862, 0.00017950878827832639, 0.0002461110707372427, 0.00026459613582119346, 0.00013093349116388708, 0.00015654330491088331, 0.00019871933909598738, 0.00013269101327750832, 0.00014143907174002379, 0.00021654562442563474, 7.8167140600271523e-05, 0.00020394545572344214, 0.00010782838944578543, 0.0001620045950403437, 5.7749079132918268e-05, 3.4403095924062654e-05, 0.00022735436505172402, 0.00017461928655393422, 0.00019740390416700393, 0.00019833195256069303, 0.00021653319709002972, 0.00017105718143284321, 0.00020363573275972158, 0.00011602204176597297, 8.7326283392030746e-05, 0.00021000434935558587, 0.00019338689162395895, 7.6985699706710875e-05, 0.00021929452486801893, 0.00017916991782840341, 0.0002264808863401413, 0.00020532135386019945, 0.00037891507963649929, 0.00024537538411095738, 0.00029132375493645668, 0.00013571334420703351, 0.00027542078169062734, 0.00018627521058078855, 0.00019431988766882569, 0.00022141679073683918, 0.00015737269131932408, } };
const TfArray<48, int> quant6_zero = { 48, { 0,0,0,0,0,0,0,0,0,0,0,0,0,0,0,0,0,0,0,0,0,0,0,0,0,0,0,0,0,0,0,0,0,0,0,0,0,0,0,0,0,0,0,0,0,0,0,0 } };
const TfLiteAffineQuantization quant6 = { (TfLiteFloatArray*)&quant6_scale, (TfLiteIntArray*)&quant6_zero, 0 };
const MODEL_SECTION(EI_MODEL_SECTION) ALIGN(16) int8_t tensor_data7[48*1*1*8] = { 
  /* [0][0][][] */ -11,38,127,-3,-24,36,5,-121, 
  /* [1][0][][] */ 63,-74,69,-54,-18,-57,127,33, 
  /* [2][0][][] */ 57,83,69,-72,-91,26,127,-41, 
  /* [3][0][][] */ -5,38,-5,-33,19,-99,127,-11, 
  /* [4][0][][] */ 127,-57,-30,-3,-73,-52,-33,46, 
  /* [5][0][][] */ 22,86,127,-13,27,-44,12,-30, 
  /* [6][0][][] */ 94,114,-41,127,-76,21,17,69, 
  /* [7][0][][] */ -27,16,23,47,26,-101,-127,-50, 
  /* [8][0][][] */ 127,77,-36,80,-45,81,-106,-17, 
  /* [9][0][][] */ 127,-36,-54,84,-28,-40,40,-108, 
  /* [10][0][][] */ 64,5,-30,13,-18,127,39,29, 
  /* [11][0][][] */ 114,-16,26,-127,109,-51,-80,51, 
  /* [12][0][][] */ -75,127,51,-39,11,50,-88,108, 
  /* [13][0][][] */ 127,17,-118,9,39,-75,21,-76, 
  /* [14][0][][] */ 107,50,28,-4,-127,39,-106,-28, 
  /* [15][0][][] */ 25,-50,-122,-35,-126,-71,107,127, 
  /* [16][0][][] */ 3,-29,91,-15,127,-42,-78,-34, 
  /* [17][0][][] */ 6,-5,84,-14,127,-57,-69,-7, 
  /* [18][0][][] */ 127,-27,127,72,-45,33,-51,-3, 
  /* [19][0][][] */ 93,100,101,-69,-56,-127,-14,-86, 
  /* [20][0][][] */ 66,-13,71,127,-8,-34,-81,61, 
  /* [21][0][][] */ 113,-12,-53,-127,46,-49,-3,116, 
  /* [22][0][][] */ -92,-68,-89,-54,57,-48,127,-94, 
  /* [23][0][][] */ -6,41,45,-63,-127,-122,0,-25, 
  /* [24][0][][] */ 127,-8,59,26,16,-27,-81,90, 
  /* [25][0][][] */ 63,127,-44,-125,-25,-39,-19,90, 
  /* [26][0][][] */ -77,-54,51,-127,102,-8,-30,-101, 
  /* [27][0][][] */ 86,127,-12,-53,-5,44,17,-6, 
  /* [28][0][][] */ 52,79,-16,14,15,-13,-29,127, 
  /* [29][0][][] */ 127,4,81,111,19,24,-102,39, 
  /* [30][0][][] */ 127,-96,-94,111,37,32,-82,89, 
  /* [31][0][][] */ 127,-117,20,34,-79,-109,-118,80, 
  /* [32][0][][] */ -92,-76,5,-127,119,-1,-92,-61, 
  /* [33][0][][] */ 39,34,63,14,50,-127,126,73, 
  /* [34][0][][] */ -50,24,86,-72,127,-20,-70,116, 
  /* [35][0][][] */ -59,1,16,111,4,127,20,-10, 
  /* [36][0][][] */ 67,12,-18,-127,53,-11,24,51, 
  /* [37][0][][] */ 43,63,-32,-13,-85,127,41,28, 
  /* [38][0][][] */ -23,-65,3,120,31,44,20,127, 
  /* [39][0][][] */ 9,1,-127,37,-13,-38,-16,57, 
  /* [40][0][][] */ 54,-7,-51,7,-29,59,-49,127, 
  /* [41][0][][] */ 22,24,3,-50,-69,-127,19,-2, 
  /* [42][0][][] */ -62,87,-67,127,-12,111,-61,-115, 
  /* [43][0][][] */ -41,15,-22,-127,-48,-19,28,-106, 
  /* [44][0][][] */ 123,15,56,106,21,127,-108,34, 
  /* [45][0][][] */ -8,107,-12,31,127,-34,-91,-26, 
  /* [46][0][][] */ 98,-23,11,127,31,22,-88,49, 
  /* [47][0][][] */ 8,-127,44,-45,114,51,25,19, 
};
const TfArray<4, int> tensor_dimension7 = { 4, { 48,1,1,8 } };
const TfArray<48, float> quant7_scale = { 48, { 0.0029147544410079718, 0.0037008889485150576, 0.0020553055219352245, 0.0028723797295242548, 0.0031469881068915129, 0.0029139760881662369, 0.0026418482884764671, 0.0019478327594697475, 0.0021600797772407532, 0.0029615238308906555, 0.0031839597504585981, 0.0015755596105009317, 0.0018837295938283205, 0.0023912456817924976, 0.0015967083163559437, 0.0017019761726260185, 0.002605754416435957, 0.00094060722040012479, 0.0024541330058127642, 0.0012975293211638927, 0.001949446857906878, 0.00069491093745455146, 0.00041398213943466544, 0.0027358189690858126, 0.002101243007928133, 0.0023754166904836893, 0.0023865841794759035, 0.0026056049391627312, 0.0020583791192620993, 0.0024504060856997967, 0.0013961258810013533, 0.0010508217383176088, 0.0025270413607358932, 0.0023270789533853531, 0.00092639058129861951, 0.0026388326659798622, 0.0021560019813477993, 0.0027253082953393459, 0.0024706895928829908, 0.0045595918782055378, 0.0029526711441576481, 0.0035055805929005146, 0.0016330768121406436, 0.0033142159227281809, 0.0022415020503103733, 0.002338305814191699, 0.0026643704622983932, 0.0018937098793685436, } };
const TfLiteAffineQuantization quant7 = { (TfLiteFloatArray*)&quant7_scale, (TfLiteIntArray*)&g0::quant6_zero, 0 };
const MODEL_SECTION(EI_MODEL_SECTION) ALIGN(16) int32_t tensor_data8[8] = { -8758, -2289, -1764, -9061, -1793, -780, 12427, 7672, };
const TfArray<1, int> tensor_dimension8 = { 1, { 8 } };
const TfArray<8, float> quant8_scale = { 8, { 0.00016443111235275865, 0.00021858593390788883, 0.00012574699940159917, 0.00012096402497263625, 0.00015288767463061959, 0.00016082724323496222, 9.7082345746457577e-05, 0.00017175165703520179, } };
const TfArray<8, int> quant8_zero = { 8, { 0,0,0,0,0,0,0,0 } };
const TfLiteAffineQuantization quant8 = { (TfLiteFloatArray*)&quant8_scale, (TfLiteIntArray*)&quant8_zero, 0 };
const MODEL_SECTION(EI_MODEL_SECTION) ALIGN(16) int8_t tensor_data9[8*1*1*48] = { 
  /* [0][0][][] */ 118,-49,2,-27,18,50,0,40,123,-78,41,29,-56,65,-4,-35,-8,-20,-33,-13,11,-61,-11,-42,-78,-30,-19,-47,-37,127,-1,23,15,-53,13,-39,70,-37,-88,32,16,-40,-71,-13,58,-43,85,-46, 
  /* [1][0][][] */ 45,-10,-20,57,59,64,14,44,77,-66,-22,10,26,54,-38,-16,-48,-22,-78,-17,24,-45,58,61,6,-67,-6,35,-10,68,-41,127,-48,47,-36,-15,-82,14,-39,-24,-44,-20,-23,50,13,-12,-21,-80, 
  /* [2][0][][] */ -34,-11,-68,47,-34,-9,-2,41,-72,-44,-90,-18,-28,50,-127,30,49,-52,15,-37,114,40,-13,-32,37,84,55,-40,-45,47,77,9,-43,29,35,-44,51,25,36,89,-24,59,56,12,-34,58,-29,49, 
  /* [3][0][][] */ 17,-79,-30,31,-14,1,-24,55,95,127,-123,13,24,-38,-43,85,-101,1,-20,74,-47,-1,59,0,-18,26,-39,63,-41,73,-22,-58,29,2,62,-12,89,-16,14,41,-47,78,60,22,50,-19,16,-56, 
  /* [4][0][][] */ -12,-43,8,-17,23,86,-35,-38,11,-31,53,19,-38,-26,-36,1,66,6,-18,20,-41,-25,68,-20,-56,8,10,25,29,-29,-4,46,-32,63,7,24,-37,27,21,15,-18,19,-24,34,127,55,-23,18, 
  /* [5][0][][] */ -49,-67,57,-127,-24,23,-28,-49,1,52,-32,48,-59,17,47,-7,52,42,62,8,5,6,-7,-43,54,-48,-26,-52,-4,-31,11,-55,16,-32,62,-19,-30,23,45,42,63,8,9,-19,-23,-14,-27,28, 
  /* [6][0][][] */ -65,-24,59,7,-115,-101,9,-87,-127,0,-110,15,37,-45,108,31,-36,20,36,126,-32,4,105,126,-48,-47,13,-2,35,-98,-73,-60,-40,56,59,-66,-57,90,101,-55,-66,84,88,-82,-50,-69,-68,-20, 
  /* [7][0][][] */ 35,-9,19,-31,-3,16,-44,-22,-127,-33,105,20,13,-27,30,-19,18,28,10,-33,-55,22,-7,-21,62,42,-45,9,3,-32,-37,-48,-85,-38,2,-16,26,-14,7,-31,50,6,27,-21,33,-37,9,34, 
};
const TfArray<4, int> tensor_dimension9 = { 4, { 8,1,1,48 } };
const TfArray<8, float> quant9_scale = { 8, { 0.0069883223623037338, 0.0092899017035961151, 0.0053442474454641342, 0.0051409709267318249, 0.0064977258443832397, 0.0068351579830050468, 0.0041259997524321079, 0.0072994455695152283, } };
const TfLiteAffineQuantization quant9 = { (TfLiteFloatArray*)&quant9_scale, (TfLiteIntArray*)&g0::quant8_zero, 0 };
const MODEL_SECTION(EI_MODEL_SECTION) ALIGN(16) int32_t tensor_data10[48] = { -3389, -2854, 10812, -1113, -4029, -6195, -7296, 15023, 5896, -1210, -4256, -6669, 1924, 11735, 4877, -1331, 2168, -5377, 6455, -1859, 12314, -3148, 1621, 881, 2368, -8561, 2345, -849, 3218, -19386, -2717, -5709, 592, -1795, -5137, 14, 15468, -846, 501, -15676, -198, 54813, -6087, -2918, 1897, -4649, 10722, -4721, };
const TfArray<48, float> quant10_scale = { 48, { 0.00022980952053330839, 0.00022485600493382663, 0.00011378338240319863, 0.00012127419176977128, 0.00021315275807864964, 0.0001348960940958932, 0.00018329609883949161, 0.00010365401249146089, 0.00016089878045022488, 0.00064006116008386016, 0.00033804684062488377, 7.4856165156234056e-05, 0.00023920212697703391, 0.00011132381041534245, 0.00029848088161088526, 0.00015869842900428921, 0.00015233953308779746, 0.00011516709491843358, 0.00014549319166690111, 0.00028852670220658183, 0.00010685608140192926, 0.00019289561896584928, 0.0001924482494359836, 0.00018287671264261007, 0.00019609976152423769, 0.00015644394443370402, 0.00019930659618694335, 0.00035557561204768717, 0.00016159396909642965, 0.0001020069612422958, 0.00018317211652174592, 0.00015090033411979675, 0.00014033938350621611, 0.00024904063320718706, 0.00010167453729081899, 7.5220406870357692e-05, 0.00011511150660226122, 5.9803667681990191e-05, 0.00012101513857487589, 7.7830154623370618e-05, 0.0002543371228966862, 1.6686797607690096e-05, 0.0002504608710296452, 0.00012297849752940238, 0.00019906890520360321, 0.00011524922592798248, 0.00010784686310216784, 0.00014422692765947431, } };
const TfLiteAffineQuantization quant10 = { (TfLiteFloatArray*)&quant10_scale, (TfLiteIntArray*)&g0::quant6_zero, 0 };
const MODEL_SECTION(EI_MODEL_SECTION) ALIGN(16) int8_t tensor_data11[1*3*3*48] = { 
  /* [0][0][][] */ 87,78,23,59,26,-7,-24,0,37,-127,28,37,16,-86,-25,60,110,52,-107,-3,93,3,-40,-11,67,120,15,-24,-16,46,-16,-33,127,29,87,108,-61,20,77,127,-78,91,-55,-56,38,-113,-31,14, 108,127,-127,127,47,58,-39,-127,31,55,127,7,-43,2,-27,-18,-54,127,-79,22,73,127,24,-32,23,26,-5,127,-127,100,-35,-122,0,-33,21,78,-99,127,90,100,-127,-118,52,-12,7,18,-127,77, 77,59,-29,27,28,-28,-23,-41,40,-106,35,-2,18,-90,-18,-29,120,-49,-76,4,61,22,-31,26,36,99,1,4,49,26,1,-12,85,20,74,15,-19,-54,127,68,-64,84,8,87,39,127,47,12, 
  /* [0][1][][] */ -29,-21,-56,105,31,60,74,-41,40,15,-45,127,111,-12,-18,-49,-19,66,65,-12,-127,24,17,-98,32,127,9,-4,28,50,28,71,11,127,44,54,-66,-12,-53,65,54,20,61,-127,9,-71,-27,71, 34,-92,-39,-114,127,0,127,-107,-127,63,12,27,-127,127,127,-9,-111,83,20,127,63,-16,127,-19,-127,111,12,-70,-62,9,-127,127,40,-107,28,98,127,51,-21,126,71,-61,12,36,120,-58,-21,-5, -8,-23,-104,56,-4,127,45,-12,33,29,-21,40,-5,-41,-27,-19,-68,43,127,-32,-63,-5,-70,127,17,35,3,32,26,40,54,51,-45,-17,-11,-127,-61,-1,24,-6,8,122,-35,127,4,93,-59,33, 
  /* [0][2][][] */ -35,-22,14,-9,-8,26,21,26,35,-63,1,9,-10,-118,-53,72,117,66,11,7,-103,27,-13,-36,36,37,-20,-17,-16,82,7,28,-1,6,125,-17,-23,43,11,25,59,78,127,-31,-66,-82,-45,16, -127,18,-68,35,-123,-7,-11,-13,42,28,-67,60,-37,-50,-4,127,-84,69,-120,-23,-104,3,-15,-54,-36,94,-127,-28,-28,127,31,51,7,-34,28,20,-29,20,-57,34,-12,-127,-49,-55,-127,56,-77,127, -21,-6,-73,7,15,38,10,39,32,-104,1,-1,-10,-68,-20,5,127,-16,117,8,-92,3,-11,13,9,-1,-17,-10,31,20,34,14,-66,-5,127,23,-14,85,69,-61,40,103,-50,46,-44,73,-36,38, 
};
const TfArray<4, int> tensor_dimension11 = { 4, { 1,3,3,48 } };
const TfArray<48, float> quant11_scale = { 48, { 0.010339726693928242, 0.01011685561388731, 0.0051194098778069019, 0.0054564406163990498, 0.0095902960747480392, 0.0060693253763020039, 0.0082469675689935684, 0.0046636629849672318, 0.0072392537258565426, 0.028798013925552368, 0.015209604986011982, 0.0033679732587188482, 0.010762324556708336, 0.0050087473355233669, 0.013429430313408375, 0.0071402541361749172, 0.0068541513755917549, 0.0051816664636135101, 0.0065461164340376854, 0.012981565669178963, 0.0048077325336635113, 0.0086788749322295189, 0.0086587462574243546, 0.0082280980423092842, 0.0088230371475219727, 0.0070388191379606724, 0.008967321366071701, 0.015998270362615585, 0.0072705321945250034, 0.0045895581133663654, 0.0082413889467716217, 0.0067893979139626026, 0.0063142329454421997, 0.011204984970390797, 0.0045746015384793282, 0.0033843612764030695, 0.0051791653968393803, 0.0026907222345471382, 0.005444785114377737, 0.0035017807967960835, 0.011443287134170532, 0.00075078231748193502, 0.011268884874880314, 0.0055331219919025898, 0.0089566269889473915, 0.0051853619515895844, 0.0048523102886974812, 0.0064891437068581581, } };
const TfLiteAffineQuantization quant11 = { (TfLiteFloatArray*)&quant11_scale, (TfLiteIntArray*)&g0::quant6_zero, 3 };
const MODEL_SECTION(EI_MODEL_SECTION) ALIGN(16) int32_t tensor_data12[48] = { 76528, 3392, 1692, 1736, 4996, 2197, 5305, 3736, 2792, -4656, 8088, 845, 6910, 1761, 8624, 1774, 5028, -1484, 8497, 40, 2398, -356, 4611, 5729, 1310, -3702, 2129, 17692, 907, 4265, 2001, 7398, 1325, 3251, -322, -888, 1935, 3030, 149, 557, 6576, -887, 8605, 1237, 1285, 3685, 3186, -1214, };
const TfArray<48, float> quant12_scale = { 48, { 1.5066603737068363e-05, 0.0001879608171293512, 0.00021363336418289691, 0.00015224130766000599, 0.00014646744239144027, 0.0002076147502521053, 0.00014841019583400339, 0.0001893519947770983, 0.00015467384946532547, 0.00015001687279436737, 0.00010875514999497682, 0.00017940692487172782, 0.00012669000716414303, 0.0001827394007705152, 9.1190326202195138e-05, 0.00023191030777525157, 0.00013749509525950998, 0.00021010180353187025, 0.00010265781020279974, 0.00032465404365211725, 0.0002281186607433483, 0.00019580119987949729, 0.00013934487651567906, 0.0001305697369389236, 0.00025512796128168702, 0.00016572156164329499, 0.00022249922039918602, 5.8360088587505743e-05, 0.0002471756306476891, 0.00013905247033108026, 0.00018108030781149864, 0.00011669251398416236, 0.00019757822155952454, 0.00021929774084128439, 0.00027075348771177232, 0.00025639147497713566, 0.00026089622406288981, 0.00013117256457917392, 0.00018777123477775604, 0.00021926248155068606, 0.00014119264960754663, 0.00022916983289178461, 0.00010707021283451468, 0.00016932240396272391, 0.00021515073603950441, 0.0001532708847662434, 0.00018633634317666292, 0.00019507134857121855, } };
const TfLiteAffineQuantization quant12 = { (TfLiteFloatArray*)&quant12_scale, (TfLiteIntArray*)&g0::quant6_zero, 0 };
const MODEL_SECTION(EI_MODEL_SECTION) ALIGN(16) int8_t tensor_data13[48*1*1*8] = { 
  /* [0][0][][] */ -127,79,-22,-74,104,114,52,-43, 
  /* [1][0][][] */ 44,-18,-12,-33,-17,-127,49,34, 
  /* [2][0][][] */ -61,72,31,-23,-72,21,-52,127, 
  /* [3][0][][] */ 89,126,84,-20,-66,-127,92,25, 
  /* [4][0][][] */ -2,76,-111,1,-127,105,50,82, 
  /* [5][0][][] */ -35,67,33,-40,-85,-127,-64,18, 
  /* [6][0][][] */ -79,127,73,-17,-78,-19,24,-55, 
  /* [7][0][][] */ -2,-9,15,39,5,-127,-9,33, 
  /* [8][0][][] */ 127,48,-50,81,-82,-71,-94,11, 
  /* [9][0][][] */ 116,-45,-50,-68,-15,-45,-39,127, 
  /* [10][0][][] */ -73,-21,1,106,-36,40,22,-127, 
  /* [11][0][][] */ 3,7,59,-23,26,121,127,99, 
  /* [12][0][][] */ -127,-17,-31,-75,114,0,-47,19, 
  /* [13][0][][] */ -29,-21,-28,65,-4,-127,77,24, 
  /* [14][0][][] */ 83,127,116,40,62,-125,-103,26, 
  /* [15][0][][] */ -35,18,127,108,-10,-20,50,-54, 
  /* [16][0][][] */ -87,-76,125,-60,127,-23,-52,2, 
  /* [17][0][][] */ 49,-60,-34,18,-6,127,-14,35, 
  /* [18][0][][] */ -8,127,26,-84,-64,73,57,-81, 
  /* [19][0][][] */ 6,68,91,127,-10,30,17,44, 
  /* [20][0][][] */ 36,34,68,-127,-41,21,64,-22, 
  /* [21][0][][] */ -53,31,48,-43,127,44,92,4, 
  /* [22][0][][] */ 68,-80,-108,74,21,-53,-54,127, 
  /* [23][0][][] */ 70,-101,-127,-62,63,5,-76,120, 
  /* [24][0][][] */ 17,-33,-62,6,-29,25,-127,82, 
  /* [25][0][][] */ 17,12,39,-1,127,-15,-117,-76, 
  /* [26][0][][] */ 4,75,127,7,-47,-40,55,-65, 
  /* [27][0][][] */ -91,38,127,-53,29,10,58,-115, 
  /* [28][0][][] */ 54,7,53,127,69,-48,32,66, 
  /* [29][0][][] */ 42,80,119,49,-72,60,-127,88, 
  /* [30][0][][] */ 47,-31,-81,56,-127,-26,-13,75, 
  /* [31][0][][] */ -9,127,68,-57,-61,66,83,-108, 
  /* [32][0][][] */ 108,13,-36,100,46,127,40,-59, 
  /* [33][0][][] */ 43,19,-127,9,2,-41,-14,34, 
  /* [34][0][][] */ 38,-94,12,-127,-16,67,3,-10, 
  /* [35][0][][] */ -37,-18,110,-27,5,-127,-32,-13, 
  /* [36][0][][] */ -15,24,-61,-127,-9,6,1,-38, 
  /* [37][0][][] */ 87,-24,-40,-127,-93,118,-69,-117, 
  /* [38][0][][] */ 115,-66,-33,118,69,31,-51,127, 
  /* [39][0][][] */ 127,104,61,98,-8,121,-48,-13, 
  /* [40][0][][] */ 33,-53,-127,-3,1,4,-30,43, 
  /* [41][0][][] */ -32,-87,-115,-127,18,-101,-25,-38, 
  /* [42][0][][] */ 78,125,63,127,-74,-1,26,22, 
  /* [43][0][][] */ 98,-31,-119,-87,-91,-94,90,127, 
  /* [44][0][][] */ 20,65,70,-75,-81,15,48,-127, 
  /* [45][0][][] */ 60,69,-122,127,-84,14,73,94, 
  /* [46][0][][] */ 79,-75,-127,-90,9,-96,-17,20, 
  /* [47][0][][] */ 112,-89,127,-63,98,-35,-16,-10, 
};
const TfArray<48, float> quant13_scale = { 48, { 0.00024071660300251096, 0.0030030184425413609, 0.0034131845459342003, 0.002432334003970027, 0.0023400858044624329, 0.0033170261885970831, 0.0023711249232292175, 0.0030252451542764902, 0.0024711980950087309, 0.0023967945016920567, 0.0017375628231093287, 0.0028663543052971363, 0.0020241050515323877, 0.0029195968527346849, 0.0014569326303899288, 0.0037051921244710684, 0.0021967361681163311, 0.0033567612990736961, 0.0016401465982198715, 0.0051869433373212814, 0.0036446135491132736, 0.0031282829586416483, 0.0022262898273766041, 0.0020860908553004265, 0.0040761367417871952, 0.0026477056089788675, 0.0035548328887671232, 0.00093240936985239387, 0.0039490838535130024, 0.0022216180805116892, 0.0028930897824466228, 0.0018643767107278109, 0.0031566740944981575, 0.0035036832559853792, 0.0043257833458483219, 0.004096323624253273, 0.0041682953014969826, 0.0020957221277058125, 0.0029999895486980677, 0.0035031200386583805, 0.0022558113560080528, 0.0036614080891013145, 0.0017106428276747465, 0.0027052357327193022, 0.0034374273382127285, 0.0024487832561135292, 0.0029770645778626204, 0.0031166223343461752, } };
const TfLiteAffineQuantization quant13 = { (TfLiteFloatArray*)&quant13_scale, (TfLiteIntArray*)&g0::quant6_zero, 0 };
const MODEL_SECTION(EI_MODEL_SECTION) ALIGN(16) int32_t tensor_data14[8] = { -15440, -38371, -2082, 12182, -14489, -5298, -24154, -2805, };
const TfArray<8, float> quant14_scale = { 8, { 0.00011158504639752209, 6.0486876463983208e-05, 5.884744314244017e-05, 6.4764768467284739e-05, 7.1924972871784121e-05, 5.0428960093995556e-05, 8.2820501120295376e-05, 5.3317249694373459e-05, } };
const TfLiteAffineQuantization quant14 = { (TfLiteFloatArray*)&quant14_scale, (TfLiteIntArray*)&g0::quant8_zero, 0 };
const MODEL_SECTION(EI_MODEL_SECTION) ALIGN(16) int8_t tensor_data15[8*1*1*48] = { 
  /* [0][0][][] */ 73,72,-81,77,-9,23,-102,-44,-7,8,2,-40,-34,-13,77,-7,47,-1,16,-9,24,-56,64,-1,16,-38,-9,-9,-7,14,-35,11,66,-5,18,21,127,71,0,-59,-1,-12,-9,0,72,12,4,-67, 
  /* [1][0][][] */ 107,52,23,15,27,77,-36,-28,37,126,-21,-76,124,-35,4,49,-13,72,0,-75,127,-23,71,94,26,31,64,2,60,-85,38,76,81,68,-3,127,66,15,42,0,110,12,20,18,1,44,126,-64, 
  /* [2][0][][] */ 17,11,86,127,-16,24,-7,21,19,90,42,-34,-46,82,30,35,-93,-61,35,30,-11,28,-42,-70,-29,-39,49,-23,-63,23,6,-3,-28,-71,-57,-19,-11,7,-81,-33,-19,-38,-43,45,54,-66,-40,32, 
  /* [3][0][][] */ -13,55,-51,-20,15,-67,9,40,81,-91,-47,37,-41,-6,29,45,28,23,-50,-42,19,-9,-82,17,-34,-27,17,-37,35,-46,33,-30,27,-36,-41,-30,-127,0,-105,14,-53,-42,16,-1,-58,-14,-30,-47, 
  /* [4][0][][] */ 4,-41,-4,-22,-14,89,63,30,-127,-100,54,17,65,-43,-68,-79,123,38,94,-46,30,-98,-23,7,-8,28,-44,-85,-79,-17,109,12,69,62,105,53,51,74,24,75,13,61,-32,-35,118,69,77,-36, 
  /* [5][0][][] */ 14,25,21,104,33,46,-19,-75,-97,12,-23,0,3,83,47,-62,82,56,2,13,-32,-51,-17,-26,-83,-35,-24,47,-14,34,-18,31,-12,-74,62,12,-10,127,-43,-81,-13,-33,-5,-32,-1,10,-36,67, 
  /* [6][0][][] */ 69,16,2,103,-54,14,25,64,30,-84,36,68,65,-19,-42,-34,63,0,-11,14,45,-1,-2,31,23,53,-44,-11,24,-52,81,28,1,-9,11,72,100,-55,36,11,-44,52,-75,43,76,127,89,-41, 
  /* [7][0][][] */ -10,30,127,50,-34,61,-108,16,-67,71,6,3,66,68,31,15,-48,-29,-41,1,-14,41,-23,-78,-16,81,28,21,-7,11,21,-43,-89,-13,94,33,112,10,21,21,-33,-63,-52,-48,4,-29,25,10, 
};
const TfArray<8, float> quant15_scale = { 8, { 0.0047423643991351128, 0.0025706922169774771, 0.0025010162498801947, 0.0027525026816874743, 0.0030568111687898636, 0.0021432307548820972, 0.0035198712721467018, 0.0022659830283373594, } };
const TfLiteAffineQuantization quant15 = { (TfLiteFloatArray*)&quant15_scale, (TfLiteIntArray*)&g0::quant8_zero, 0 };
const MODEL_SECTION(EI_MODEL_SECTION) ALIGN(16) int32_t tensor_data16[48] = { 10792, -11348, -1556, 2058, 4806, 7765, 3909, -660, -9288, -266, -1803, -768, -10590, -3304, 5107, -2000, -4731, 14840, -4447, -9400, 15182, 1073, -6916, -3144, -2715, -1719, -5496, -3197, 902, 1045, 898, 27329, 17224, 373, 1792, 14527, -2234, 9918, 5047, 1349, -742, -7048, -2188, 128, 2396, 11863, 5783, -4072, };
const TfArray<48, float> quant16_scale = { 48, { 0.00012306250573601574, 0.00011513983190525323, 0.00067639834014698863, 0.00029857543995603919, 0.00010981234663631767, 0.00013590769958682358, 0.00011664148041745648, 0.00035609336919151247, 0.00012474619143176824, 0.00056028773542493582, 0.00020334916189312935, 0.00019227807933930308, 0.00011320631165290251, 0.00010798846778925508, 0.00020284972561057657, 0.00015573705604765564, 9.5692201284691691e-05, 5.471523036248982e-05, 0.00034463420161046088, 6.4953186665661633e-05, 7.4893941928166896e-05, 0.0002989629574585706, 0.00015140372852329165, 0.00019138964125886559, 0.00017794390441849828, 0.00024721972295083106, 0.00019326202163938433, 0.00020552607020363212, 0.00020149284682702273, 0.00018916005501523614, 0.00015071516099851578, 7.0010391937103122e-05, 9.3928341811988503e-05, 0.00014378201740328223, 0.0001758452708600089, 0.00013357332500163466, 0.00079667213140055537, 0.00021771981846541166, 0.00020169782510492951, 0.00041088735451921821, 0.00018449441995471716, 0.00018460702267475426, 0.0002402407699264586, 0.00016502744983881712, 0.00019679495017044246, 0.00011718172754626721, 0.00022047925449442118, 0.00014515659131575376, } };
const TfLiteAffineQuantization quant16 = { (TfLiteFloatArray*)&quant16_scale, (TfLiteIntArray*)&g0::quant6_zero, 0 };
const MODEL_SECTION(EI_MODEL_SECTION) ALIGN(16) int8_t tensor_data17[1*3*3*48] = { 
  /* [0][0][][] */ -127,-5,127,-13,98,-4,26,-5,7,39,127,-19,86,-1,-64,30,101,42,-3,127,-25,1,-9,-29,-12,30,32,-46,-58,127,96,-111,-64,96,127,-28,20,-58,-125,-18,20,-19,3,-46,5,18,-127,-10, -54,75,41,23,-38,-20,127,-14,60,22,79,127,21,86,1,11,68,-21,25,92,4,-54,122,-101,-22,85,-63,35,-59,-88,127,-75,-120,-121,57,33,-59,0,-127,-8,-67,-15,26,-127,25,12,2,3, -68,12,59,-19,26,-31,27,-7,1,32,99,-75,94,-41,-41,-34,31,18,-1,-10,-12,10,-29,-23,32,28,17,-97,-60,60,49,-127,-44,-6,100,-3,23,28,-84,-16,23,42,-12,-42,-3,-1,-98,-47, 
  /* [0][1][][] */ -108,64,-44,-53,-42,-75,20,-19,32,16,77,31,127,87,-74,35,107,-124,28,89,-68,-79,-44,-12,-127,-7,-7,11,-8,13,-5,-94,-127,127,-88,-57,43,-77,17,72,-127,23,-64,80,-9,-127,30,-53, 43,11,90,127,-94,46,-114,127,127,-127,-5,6,74,94,127,-18,-60,-43,127,67,-127,127,127,53,109,99,56,127,127,-73,17,35,-27,-126,38,-119,127,127,57,63,-82,127,3,106,127,62,21,-127, -89,63,-71,-42,-86,-78,11,-12,22,5,48,-5,67,127,-76,89,74,-127,-5,35,21,-81,-79,-7,61,-53,-28,2,3,44,38,-102,19,-13,-98,-127,36,-68,14,-127,-93,25,127,126,-18,-75,15,106, 
  /* [0][2][][] */ -36,-14,17,-8,-5,-47,19,-3,21,28,40,76,28,-68,-76,31,52,-28,-29,-15,-57,4,10,32,-1,5,18,-23,11,61,-1,-60,-81,22,-112,-10,-48,-72,53,-26,81,-6,-21,-17,-14,-37,25,-42, -60,127,-3,27,-127,-127,96,-64,56,20,-27,-50,-10,-59,-44,127,127,56,-23,69,-70,-3,115,127,12,-127,127,7,28,-66,-34,-105,-20,-81,-47,-97,-73,-10,24,27,122,37,-50,27,-27,-28,-15,16, 13,31,30,15,-45,-56,31,3,74,32,-67,27,-14,-67,-38,73,57,-30,-54,-83,-32,-22,-41,58,39,-5,10,-51,37,-19,-11,-16,-48,-11,-60,4,-36,-13,31,-4,79,18,16,-22,-26,-27,22,71, 
};
const TfArray<48, float> quant17_scale = { 48, { 0.0052301562391221523, 0.0048934426158666611, 0.02874692901968956, 0.012689456343650818, 0.0046670245938003063, 0.0057760770432651043, 0.0049572628922760487, 0.015133967623114586, 0.0053017130121588707, 0.023812228813767433, 0.0086423391476273537, 0.0081718182191252708, 0.0048112682998180389, 0.0045895096845924854, 0.0086211133748292923, 0.0066188247874379158, 0.0040669185109436512, 0.0023253972176462412, 0.014646952971816063, 0.0027605104260146618, 0.00318299257196486, 0.012705925852060318, 0.0064346585422754288, 0.0081340596079826355, 0.0075626159086823463, 0.010506837628781796, 0.0082136355340480804, 0.0087348576635122299, 0.0085634458810091019, 0.0080393021926283836, 0.0064053945243358612, 0.0029754417482763529, 0.0039919544942677021, 0.0061107357032597065, 0.0074734236113727093, 0.0056768665090203285, 0.033858563750982285, 0.0092530921101570129, 0.0085721574723720551, 0.017462711781263351, 0.0078410124406218529, 0.0078457985073328018, 0.010210232809185982, 0.0070136664435267448, 0.0083637852221727371, 0.0049802232533693314, 0.0093703679740428925, 0.0061691552400588989, } };
const TfLiteAffineQuantization quant17 = { (TfLiteFloatArray*)&quant17_scale, (TfLiteIntArray*)&g0::quant6_zero, 3 };
const MODEL_SECTION(EI_MODEL_SECTION) ALIGN(16) int32_t tensor_data18[48] = { 2206, 8806, -5692, 4296, 2892, 4192, 2046, 10602, 12362, 7367, -2161, -220, 1086, 4009, 2661, -923, -27, 4786, 10067, 349, 1031, 7331, 1392, 1899, 7230, 4272, 1010, 12048, 1405, 2468, -1573, 12438, 1277, 6461, 3924, 6728, 61242, 12916, 4235, 8759, 2449, 1230, 4222, 945, 2614, 725, 2083, 2427, };
const TfArray<48, float> quant18_scale = { 48, { 0.0001386114745400846, 9.2140202468726784e-05, 0.00013014463183935732, 0.00017610346549190581, 0.00018723549146670848, 0.00013370679516810924, 0.00023870819131843746, 7.7606877312064171e-05, 8.0646444985177368e-05, 0.00010032698628492653, 0.00018099058070220053, 0.00021831243066117167, 0.00022466010705102235, 0.00014101105625741184, 0.00020620498980861157, 0.00022241582337301224, 0.00035576484515331686, 0.00012766369036398828, 9.6375821158289909e-05, 0.00020422044326551259, 0.00023456393682863563, 0.00010319569264538586, 0.00030102365417405963, 0.00026458632783032954, 0.00011182473826920614, 0.00016234793292824179, 0.00019089605484623462, 8.2769249274861068e-05, 0.00021770974854007363, 0.00024293674505315721, 0.00022357850684784353, 8.2946608017664403e-05, 0.0003241357917431742, 0.00013288043555803597, 0.00014414871111512184, 0.00013201155525166541, 2.5052604541997425e-05, 6.8458168243523687e-05, 0.00018353077757637948, 9.3859423941466957e-05, 0.00014553031360264868, 0.00021330179879441857, 0.00016575919289607555, 0.00019903125939890742, 0.00020405625400599092, 0.00024363792908843607, 0.00023766815138515085, 0.00015536860155407339, } };
const TfLiteAffineQuantization quant18 = { (TfLiteFloatArray*)&quant18_scale, (TfLiteIntArray*)&g0::quant6_zero, 0 };
const MODEL_SECTION(EI_MODEL_SECTION) ALIGN(16) int8_t tensor_data19[48*1*1*8] = { 
  /* [0][0][][] */ -57,-127,-52,47,-65,-30,47,-66, 
  /* [1][0][][] */ -3,127,62,-64,14,-120,-65,112, 
  /* [2][0][][] */ -127,-46,72,50,101,6,64,-15, 
  /* [3][0][][] */ -9,-32,-127,-43,38,-6,-83,31, 
  /* [4][0][][] */ -34,-47,104,-61,127,-8,46,7, 
  /* [5][0][][] */ -18,49,52,-46,90,48,-59,127, 
  /* [6][0][][] */ -127,72,36,58,-31,16,43,-108, 
  /* [7][0][][] */ 72,38,127,5,60,-115,-39,127, 
  /* [8][0][][] */ 13,101,4,-32,31,117,127,-43, 
  /* [9][0][][] */ 119,127,-8,-78,-109,-105,-40,114, 
  /* [10][0][][] */ 23,-18,22,7,-22,39,-127,-103, 
  /* [11][0][][] */ -63,1,-77,-53,127,42,44,67, 
  /* [12][0][][] */ 88,42,-31,-18,127,75,12,-20, 
  /* [13][0][][] */ -122,-127,-38,48,-65,37,60,-1, 
  /* [14][0][][] */ -10,102,-127,68,3,95,11,6, 
  /* [15][0][][] */ -9,-61,-16,-68,127,5,-28,57, 
  /* [16][0][][] */ 57,-59,9,31,14,5,29,-127, 
  /* [17][0][][] */ -52,-46,-127,86,5,80,64,-65, 
  /* [18][0][][] */ 31,-23,127,-11,-46,-68,-74,-14, 
  /* [19][0][][] */ -17,119,32,35,127,-125,-85,-77, 
  /* [20][0][][] */ -127,-59,-120,-39,42,4,-14,-14, 
  /* [21][0][][] */ -49,-20,8,68,-68,-127,103,-45, 
  /* [22][0][][] */ 64,28,-127,-10,-32,-31,-15,30, 
  /* [23][0][][] */ 1,29,36,17,-80,59,12,-127, 
  /* [24][0][][] */ -80,127,88,80,110,74,13,-30, 
  /* [25][0][][] */ -30,-127,-60,-25,-68,-9,37,17, 
  /* [26][0][][] */ 87,122,-119,-88,-91,19,-127,8, 
  /* [27][0][][] */ 23,40,-109,59,-127,35,-20,-13, 
  /* [28][0][][] */ 10,-7,57,-40,-9,48,-82,-127, 
  /* [29][0][][] */ 52,-43,0,-46,-127,18,-10,-51, 
  /* [30][0][][] */ -127,-8,74,123,61,34,-66,6, 
  /* [31][0][][] */ 14,-89,28,-65,-127,52,-32,-98, 
  /* [32][0][][] */ -127,-10,10,-15,6,4,-21,6, 
  /* [33][0][][] */ 30,-58,-105,-127,13,34,-78,34, 
  /* [34][0][][] */ 79,59,127,-3,-120,-77,49,-41, 
  /* [35][0][][] */ 93,28,25,-11,-78,-19,-127,-41, 
  /* [36][0][][] */ 96,21,85,-62,0,-8,127,88, 
  /* [37][0][][] */ 76,102,-58,-33,107,116,-127,43, 
  /* [38][0][][] */ 22,77,127,121,0,21,18,-94, 
  /* [39][0][][] */ -1,27,127,-56,61,-64,2,47, 
  /* [40][0][][] */ 116,68,20,8,-109,-127,-44,-101, 
  /* [41][0][][] */ 32,-63,37,127,-30,94,-31,105, 
  /* [42][0][][] */ -4,-63,84,-29,91,-62,127,17, 
  /* [43][0][][] */ -3,-54,-50,-9,127,73,-88,75, 
  /* [44][0][][] */ 105,-5,127,14,-8,44,-85,35, 
  /* [45][0][][] */ -17,2,24,-6,-92,-127,-18,87, 
  /* [46][0][][] */ -28,48,84,55,-21,-21,53,-127, 
  /* [47][0][][] */ 9,-26,-9,127,-52,-53,92,32, 
};
const TfArray<48, float> quant19_scale = { 48, { 0.0022483896464109421, 0.0014945882139727473, 0.002111050533130765, 0.0028565397951751947, 0.0030371102038770914, 0.0021688316483050585, 0.003872038796544075, 0.0012588459067046642, 0.0013081501238048077, 0.0016273843357339501, 0.002935812808573246, 0.0035412032157182693, 0.0036441674456000328, 0.0022873126436024904, 0.003344810800626874, 0.0036077634431421757, 0.0057707917876541615, 0.0020708076190203428, 0.0015632932772859931, 0.0033126198686659336, 0.0038048157002776861, 0.0016739170532673597, 0.0048828455619513988, 0.0042918031103909016, 0.0018138871528208256, 0.0026334139984101057, 0.0030964873731136322, 0.0013425837969407439, 0.0035314271226525307, 0.0039406293071806431, 0.0036266231909394264, 0.0013454606523737311, 0.0052577429451048374, 0.0021554275881499052, 0.0023382080253213644, 0.0021413336507976055, 0.00040637337951920927, 0.0011104465229436755, 0.0029770168475806713, 0.0015224752714857459, 0.0023606186732649803, 0.0034599266946315765, 0.0026887473650276661, 0.0032284469343721867, 0.003309956518933177, 0.0039520030841231346, 0.0038551685865968466, 0.0025202035903930664, } };
const TfLiteAffineQuantization quant19 = { (TfLiteFloatArray*)&quant19_scale, (TfLiteIntArray*)&g0::quant6_zero, 0 };
const MODEL_SECTION(EI_MODEL_SECTION) ALIGN(16) int32_t tensor_data20[8] = { 5961, 1137, 19939, -6605, -9863, -14227, -6837, -173, };
const TfArray<8, float> quant20_scale = { 8, { 8.7131542386487126e-05, 8.0523881479166448e-05, 9.4597220595460385e-05, 0.00012327694275882095, 9.8324642749503255e-05, 0.0001008578110486269, 0.00016495774616487324, 0.00025589994038455188, } };
const TfLiteAffineQuantization quant20 = { (TfLiteFloatArray*)&quant20_scale, (TfLiteIntArray*)&g0::quant8_zero, 0 };
const MODEL_SECTION(EI_MODEL_SECTION) ALIGN(16) int8_t tensor_data21[8*1*1*48] = { 
  /* [0][0][][] */ -41,-30,33,-61,45,72,40,78,81,-31,-10,46,-33,-12,14,-10,40,44,8,-47,-33,32,-80,-39,28,2,-15,-75,-32,9,34,21,30,36,59,12,116,-46,-71,-8,-56,-66,-19,3,-49,-95,-127,27, 
  /* [1][0][][] */ -24,7,-43,50,-12,-1,-45,-32,-76,26,18,111,-21,16,-30,127,39,51,0,-34,-50,-30,-95,22,35,5,-28,-93,46,-23,-65,-85,59,-24,-18,-75,32,43,64,-60,-10,71,58,-36,2,-60,-62,-36, 
  /* [2][0][][] */ -2,-87,-31,-8,-23,6,-4,6,113,34,-9,-19,-50,-81,29,-7,-14,-52,-48,-21,-111,72,-1,24,23,55,-49,-30,-9,-39,50,-60,-113,53,-51,57,-64,54,-35,-33,127,-21,3,52,42,27,-63,-53, 
  /* [3][0][][] */ -11,-113,87,83,15,-105,-7,-8,-91,127,54,-64,53,28,-45,13,66,35,-1,38,64,86,31,-67,1,75,56,30,-41,-44,15,19,-9,-8,46,7,-19,-73,-49,53,-29,-19,1,-76,-85,31,17,15, 
  /* [4][0][][] */ -2,43,-21,62,37,-5,4,-11,-38,64,25,81,-1,10,49,1,-4,-90,-5,-28,75,-8,-72,58,68,-12,30,28,66,26,-17,-62,-56,127,-5,10,40,-13,19,21,-26,48,-12,-26,1,-39,-36,39, 
  /* [5][0][][] */ -7,13,12,-39,-127,19,102,3,27,40,-48,-18,-94,-1,69,-40,-99,35,-84,-61,21,82,16,36,92,20,7,10,-13,5,107,-45,-10,89,87,55,-42,70,83,66,-41,-58,-13,30,-82,54,22,91, 
  /* [6][0][][] */ 4,-25,-8,25,-56,-47,11,-3,10,-17,34,12,-66,-41,36,58,0,-60,-7,-57,77,-31,-4,-34,13,-1,13,37,42,-3,4,127,40,-14,-19,11,5,-7,17,23,0,41,-26,-51,-18,-21,-34,38, 
  /* [7][0][][] */ -31,-16,-63,-5,23,-21,1,13,36,5,21,-1,-5,13,4,-7,46,-4,26,-7,-60,11,17,-20,4,-7,-55,-10,-10,-19,10,31,18,-6,26,18,-28,127,-14,-50,-42,-3,-53,-36,32,53,-77,-9, 
};
const TfArray<8, float> quant21_scale = { 8, { 0.0037030905950814486, 0.0034222649410367012, 0.0040203817188739777, 0.0052392701618373394, 0.004178797360509634, 0.0042864568531513214, 0.007010703906416893, 0.010875747539103031, } };
const TfLiteAffineQuantization quant21 = { (TfLiteFloatArray*)&quant21_scale, (TfLiteIntArray*)&g0::quant8_zero, 0 };
const MODEL_SECTION(EI_MODEL_SECTION) ALIGN(16) int32_t tensor_data22[48] = { -23, 26998, 27074, 881, -504, -24379, 18874, 10720, -10134, -3750, -1876, 18035, 18049, -11740, -8154, -5162, 83, 24034, -1298, -2323, 37093, 8300, -7543, -7958, 11225, 13257, -2170, -360, -6690, 445, 40523, 2217, -2119, 8682, 6624, 11895, -11010, 42431, -3544, -798, 24655, -387, -3094, 14132, 130, 85, -3849, 13860, };
const TfArray<48, float> quant22_scale = { 48, { 0.00020538290846161544, 8.2535116234794259e-05, 0.00014226729399524629, 0.00011805828398792073, 5.2617353503592312e-05, 9.6512172603979707e-05, 8.4980318206362426e-05, 0.00013360241428017616, 0.00030338400392793119, 5.4109586926642805e-05, 8.2391066825948656e-05, 0.00010218349052593112, 0.00014883524272590876, 0.00022666696168016642, 8.9564353402238339e-05, 7.2271002863999456e-05, 0.00012890255311504006, 0.00016336598491761833, 0.00043757125968113542, 8.8823740952648222e-05, 7.5274190749041736e-05, 9.3245456810109317e-05, 8.1147045420948416e-05, 0.00013446429511532187, 0.00010609355376800522, 6.2856990552973002e-05, 0.0001069408463081345, 0.00012085710477549583, 0.00014379121421370655, 0.00026686544879339635, 7.6177610026206821e-05, 9.3452275905292481e-05, 5.4977310355752707e-05, 0.00013674797082785517, 0.00012978358427062631, 9.4107679615262896e-05, 0.00013675510126631707, 6.2847830122336745e-05, 0.00010338333959225565, 9.5785464509390295e-05, 0.00015744481061119586, 0.00045422022230923176, 8.9564382506068796e-05, 0.0001442103530280292, 0.0001991923782043159, 0.00010258965630782768, 0.00025939452461898327, 0.00013354218390304595, } };
const TfLiteAffineQuantization quant22 = { (TfLiteFloatArray*)&quant22_scale, (TfLiteIntArray*)&g0::quant6_zero, 0 };
const MODEL_SECTION(EI_MODEL_SECTION) ALIGN(16) int8_t tensor_data23[1*3*3*48] = { 
  /* [0][0][][] */ 31,-127,-62,63,47,88,-38,-45,9,127,85,-53,-21,14,48,71,67,-32,125,43,-36,-127,55,48,-8,-31,121,127,114,127,-71,53,74,-59,-20,-127,127,-72,49,66,-67,16,-3,-127,66,122,40,-76, 72,-84,-56,7,55,46,-26,20,35,98,57,-64,-31,43,127,94,65,-80,36,109,-75,-91,59,70,18,-94,127,65,109,89,-70,74,127,-114,-127,-56,108,-114,70,48,-127,8,5,-57,122,87,50,-82, 78,-34,-23,42,57,29,-64,-35,-22,73,-15,-60,-120,45,18,50,26,-18,37,42,1,-17,10,16,15,20,126,109,62,-6,-61,-3,12,-3,-111,-72,44,-13,86,51,-50,12,-6,7,-7,16,22,-65, 
  /* [0][1][][] */ 23,-106,-46,127,84,127,-106,-127,70,60,57,-90,-127,127,50,126,104,-53,127,78,-103,-117,87,23,-49,-127,70,111,9,40,-89,89,78,-38,9,-117,101,-106,81,84,-70,127,1,-69,98,127,69,-79, 25,-115,-127,117,127,106,-127,-55,127,96,127,-106,-101,117,88,127,127,-127,66,127,-127,-35,127,127,-104,-58,87,69,127,12,-127,127,126,-124,-54,-17,108,-127,127,127,-96,78,123,-102,64,71,47,-86, 39,-52,-59,44,107,90,-78,-20,20,59,24,-60,-95,73,53,84,-3,-23,92,45,-31,-69,62,-5,-49,-54,-3,74,49,-47,-48,-1,29,-127,-72,-10,4,-13,-2,2,-44,72,33,-31,56,12,45,-127, 
  /* [0][2][][] */ -57,-94,-57,16,56,80,-91,-71,-45,52,-8,-97,-38,37,30,66,43,-26,-91,54,-39,-92,99,97,-112,-68,36,97,97,0,-72,47,63,-50,51,-46,90,-48,35,60,-49,49,78,-77,44,62,-119,-14, -127,-29,-107,40,66,98,-52,-55,-17,75,19,-127,-26,5,46,59,46,-54,-121,81,-49,-38,76,113,-127,-66,11,31,121,52,-80,40,86,-46,33,-31,5,-51,44,42,-30,49,127,-65,127,59,-127,-6, -49,4,-65,-4,50,70,-27,-24,-98,66,38,-44,-3,-14,75,20,2,-5,-24,29,-32,81,37,16,-30,21,-1,18,66,-39,-51,-3,34,-31,42,-48,43,3,-9,10,-9,-15,45,-22,24,-4,-68,-56, 
};
const TfArray<48, float> quant23_scale = { 48, { 0.008728773333132267, 0.0035077424254268408, 0.0060463598929345608, 0.0050174770876765251, 0.0022362375166267157, 0.0041017672047019005, 0.0036116635892540216, 0.0056781023740768433, 0.012893820181488991, 0.0022996573243290186, 0.0035016203764826059, 0.0043427981436252594, 0.0063254977576434612, 0.0096333455294370651, 0.0038064850959926844, 0.0030715176835656166, 0.0054783583618700504, 0.0069430540315806866, 0.018596777692437172, 0.0037750089541077614, 0.0031991531141102314, 0.0039629316888749599, 0.0034487494267523289, 0.0057147322222590446, 0.0045089758932590485, 0.0026714219711720943, 0.0045449859462678432, 0.005136427003890276, 0.0061111263930797577, 0.011341781355440617, 0.0032375482842326164, 0.0039717215113341808, 0.0023365356028079987, 0.0058117886073887348, 0.0055158021859824657, 0.0039995764382183552, 0.0058120917528867722, 0.0026710326783359051, 0.0043937917798757553, 0.0040708822198212147, 0.006691404152661562, 0.019304359331727028, 0.0038064862601459026, 0.0061289397999644279, 0.0084656756371259689, 0.0043600602075457573, 0.011024267412722111, 0.0056755426339805126, } };
const TfLiteAffineQuantization quant23 = { (TfLiteFloatArray*)&quant23_scale, (TfLiteIntArray*)&g0::quant6_zero, 3 };
const MODEL_SECTION(EI_MODEL_SECTION) ALIGN(16) int32_t tensor_data24[48] = { -1332, 3593, 7500, -1808, 154, 22474, 4533, 1226, 8501, 1058, -1318, 1941, 7305, 1405, -454, 1434, -4073, 11393, -3161, -1596, 1950, 816, 97, 70, 409, 2056, -1746, -1942, -968, -3637, 17130, 3626, 1982, 1534, 562, 895, 3840, 5334, 1614, -37, 9228, -3013, 892, 2767, -2196, -1519, 29283, 3619, };
const TfArray<48, float> quant24_scale = { 48, { 0.00030118823633529246, 0.00018707939307205379, 0.00012795579095836729, 0.00022471051488537341, 0.00038996199145913124, 4.4767682993551716e-05, 0.00017559777188580483, 0.00024344732810277492, 0.00010918642510659993, 0.00041454334859736264, 0.00023964661522768438, 0.00025317765539512038, 0.00011328224354656413, 0.00024139662855304778, 0.00036655328585766256, 0.0001810727990232408, 0.00015429739141836762, 8.4366714872885495e-05, 0.00018741081294137985, 0.00023147076717577875, 0.00025066648959182203, 0.00024061584554146975, 0.00033129318035207689, 0.00032772167469374835, 0.0002345002576475963, 0.00016303992015309632, 0.00024312865571118891, 0.000153225744725205, 0.00019539085042197257, 0.00013889389811083674, 6.8257279053796083e-05, 0.000171946085174568, 0.00021017629478592426, 0.00024666418903507292, 0.00019962874648626894, 0.00028553983429446816, 0.00013565468543674797, 0.00012550417159218341, 0.00031442518229596317, 0.00028805402689613402, 0.00011207364150322974, 0.00010905515955528244, 0.0002575968683231622, 0.00021079546422697604, 0.00024849156034179032, 0.00023116088414099067, 4.0384802559856325e-05, 0.00016292699729092419, } };
const TfLiteAffineQuantization quant24 = { (TfLiteFloatArray*)&quant24_scale, (TfLiteIntArray*)&g0::quant6_zero, 0 };
const MODEL_SECTION(EI_MODEL_SECTION) ALIGN(16) int8_t tensor_data25[48*1*1*8] = { 
  /* [0][0][][] */ 16,25,-49,19,-17,29,-127,47, 
  /* [1][0][][] */ 2,-93,-127,30,-5,-48,122,-117, 
  /* [2][0][][] */ -96,-46,-82,-62,-14,51,-127,-17, 
  /* [3][0][][] */ -35,-53,28,1,-13,-127,-119,-35, 
  /* [4][0][][] */ -56,-127,-64,15,69,37,-36,-58, 
  /* [5][0][][] */ 75,-41,101,44,-127,81,-57,-108, 
  /* [6][0][][] */ 40,-127,-43,-29,-15,73,-37,-67, 
  /* [7][0][][] */ -19,-73,-36,-59,82,-127,-7,19, 
  /* [8][0][][] */ 62,71,46,49,31,-32,22,127, 
  /* [9][0][][] */ -27,-55,-60,27,60,-32,127,-7, 
  /* [10][0][][] */ -6,34,-127,22,40,15,74,-88, 
  /* [11][0][][] */ -16,-25,-46,26,-127,44,10,40, 
  /* [12][0][][] */ 127,86,-90,-2,-61,126,110,-26, 
  /* [13][0][][] */ -67,-23,43,-2,34,-127,-10,79, 
  /* [14][0][][] */ -81,-38,18,13,1,76,-127,-101, 
  /* [15][0][][] */ 57,91,55,-9,-104,46,127,-68, 
  /* [16][0][][] */ 6,-44,19,106,7,-67,-8,-127, 
  /* [17][0][][] */ -71,127,14,-13,-60,-37,-96,-83, 
  /* [18][0][][] */ 127,65,-67,-86,72,28,-95,-31, 
  /* [19][0][][] */ -30,62,-23,24,-127,-8,-74,-66, 
  /* [20][0][][] */ -127,-12,13,-5,30,19,100,48, 
  /* [21][0][][] */ -68,-24,67,-11,-94,-100,-127,45, 
  /* [22][0][][] */ 9,-31,-47,-5,-127,14,13,48, 
  /* [23][0][][] */ 30,-2,-21,-17,127,39,-54,58, 
  /* [24][0][][] */ 127,16,-38,24,-84,64,7,-8, 
  /* [25][0][][] */ -2,-82,86,127,-52,-115,-36,94, 
  /* [26][0][][] */ 7,127,8,69,98,-5,28,5, 
  /* [27][0][][] */ -121,123,27,5,127,-39,11,75, 
  /* [28][0][][] */ -78,-81,-73,-48,127,-125,7,-19, 
  /* [29][0][][] */ -41,-6,20,30,127,-83,-78,53, 
  /* [30][0][][] */ 127,76,-114,-124,-73,-94,-71,-85, 
  /* [31][0][][] */ 43,1,36,70,-127,13,31,-7, 
  /* [32][0][][] */ 127,31,49,25,-31,-65,84,59, 
  /* [33][0][][] */ 101,31,-40,17,-127,-24,28,40, 
  /* [34][0][][] */ 36,-3,-12,19,-59,127,30,-87, 
  /* [35][0][][] */ 102,48,-7,-49,9,-99,16,127, 
  /* [36][0][][] */ -47,-29,53,-127,-36,-19,103,-122, 
  /* [37][0][][] */ 86,-65,81,60,101,4,54,-127, 
  /* [38][0][][] */ 62,127,17,-26,-17,19,20,68, 
  /* [39][0][][] */ 22,6,-63,58,-1,-37,-56,127, 
  /* [40][0][][] */ -13,-28,-1,-33,21,-127,15,37, 
  /* [41][0][][] */ -24,70,-74,-51,92,123,50,-127, 
  /* [42][0][][] */ 33,-32,-13,-6,119,127,67,71, 
  /* [43][0][][] */ -31,77,-61,2,-127,-92,39,-40, 
  /* [44][0][][] */ -127,-74,-16,-10,74,71,-85,-82, 
  /* [45][0][][] */ -33,66,-42,16,38,6,-46,127, 
  /* [46][0][][] */ -47,8,127,-2,-66,-55,-56,53, 
  /* [47][0][][] */ -127,-81,-62,-46,69,67,-15,69, 
};
const TfArray<48, float> quant25_scale = { 48, { 0.0033488031476736069, 0.0020800682250410318, 0.0014226943021640182, 0.0024984751362353563, 0.0043358467519283295, 0.00049775571096688509, 0.0019524082308635116, 0.0027068029157817364, 0.0012140044709667563, 0.0046091577969491482, 0.002664544153958559, 0.0028149909339845181, 0.0012595443986356258, 0.0026840020436793566, 0.0040755737572908401, 0.0020132830832153559, 0.0017155769746750593, 0.00093804305652156472, 0.0020837532356381416, 0.0025736398529261351, 0.0027870701160281897, 0.0026753207203000784, 0.0036835293285548687, 0.0036438191309571266, 0.002607323694974184, 0.0018127820221707225, 0.0027032596990466118, 0.0017036617500707507, 0.0021724803373217583, 0.0015443111769855022, 0.00075892801396548748, 0.001911806408315897, 0.002336874371394515, 0.0027425701264292002, 0.0022195999044924974, 0.0031748143956065178, 0.0015082955360412598, 0.0013954355381429195, 0.0034959800541400909, 0.0032027687411755323, 0.0012461063452064991, 0.0012125449720770121, 0.0028641265816986561, 0.0023437587078660727, 0.0027628878597170115, 0.0025701944250613451, 0.00044902405352331698, 0.001811526482924819, } };
const TfLiteAffineQuantization quant25 = { (TfLiteFloatArray*)&quant25_scale, (TfLiteIntArray*)&g0::quant6_zero, 0 };
const MODEL_SECTION(EI_MODEL_SECTION) ALIGN(16) int32_t tensor_data26[8] = { 14018, 14110, 2997, -4980, -132, -8469, 7841, -6167, };
const TfArray<8, float> quant26_scale = { 8, { 0.00011326117237331346, 0.00013028466491959989, 0.00012601440539583564, 0.00016106459952425212, 0.00012967026850674301, 0.00010794396803248674, 6.5897947933990508e-05, 0.00011407127021811903, } };
const TfLiteAffineQuantization quant26 = { (TfLiteFloatArray*)&quant26_scale, (TfLiteIntArray*)&g0::quant8_zero, 0 };
const MODEL_SECTION(EI_MODEL_SECTION) ALIGN(16) int8_t tensor_data27[8*1*1*48] = { 
  /* [0][0][][] */ 14,-33,94,53,25,-36,16,12,1,52,-26,4,-42,-72,55,11,-99,61,-42,39,-63,46,-14,-21,1,-50,66,-12,-33,34,-35,96,-67,-5,-32,-80,-57,-37,-47,-21,-31,57,-127,-8,29,9,28,43, 
  /* [1][0][][] */ -63,-43,68,-10,-42,34,-34,-33,53,-26,-3,-52,3,-7,32,-6,-13,29,6,-6,-79,-41,-76,-25,52,-41,5,-36,40,-70,-10,-127,-2,-58,-49,-92,-36,-83,-7,33,30,-12,68,-107,-46,-12,-7,-28, 
  /* [2][0][][] */ -53,73,-6,0,8,8,17,-33,79,-25,70,90,103,11,53,-67,91,17,15,33,-26,3,18,103,-97,-38,25,-11,9,89,-2,-72,-21,10,5,-62,-12,20,-12,-5,72,-79,19,-1,20,-127,0,-4, 
  /* [3][0][][] */ 79,-15,-30,46,96,-75,14,-89,-30,-20,-54,-72,-29,127,-12,24,-25,-12,-75,-27,52,75,4,-32,121,63,43,-46,43,-70,54,-62,74,61,117,-74,-51,11,-25,51,40,83,-53,43,27,34,21,40, 
  /* [4][0][][] */ -58,39,-71,101,115,-30,12,-31,-48,0,-75,41,-68,-9,19,-73,25,83,-21,-36,-35,36,-56,-74,4,-31,20,-24,-4,-34,-27,64,-6,94,-71,-73,-82,-50,-38,3,96,-72,127,14,21,87,-74,-35, 
  /* [5][0][][] */ 40,14,63,-11,-21,25,32,23,127,-14,74,4,57,65,42,-54,-9,36,33,-55,-67,-56,13,40,6,-10,13,53,-51,-33,26,-12,-35,61,-37,44,31,0,-45,-55,-16,68,16,31,-26,-11,69,-1, 
  /* [6][0][][] */ -34,-53,-7,11,15,3,-5,-12,-47,-31,87,51,88,60,-39,74,84,-127,-25,-17,-9,-43,-96,3,-81,59,-44,-4,-31,-36,63,-51,65,3,-44,-32,-63,-8,58,19,89,-67,-21,-59,-116,45,-55,40, 
  /* [7][0][][] */ 0,-23,-58,-31,6,109,-7,-4,-19,-69,-127,-104,62,41,-59,-65,-46,22,96,25,-2,-70,40,-24,125,-29,-81,101,-33,-20,-31,-94,-58,70,41,117,68,-46,-41,-27,-48,-23,42,0,0,-22,9,-68, 
};
const TfArray<8, float> quant27_scale = { 8, { 0.0048135998658835888, 0.0055370982736349106, 0.0053556123748421669, 0.0068452456034719944, 0.0055109863169491291, 0.0045876186341047287, 0.0028006627690047026, 0.0048480289988219738, } };
const TfLiteAffineQuantization quant27 = { (TfLiteFloatArray*)&quant27_scale, (TfLiteIntArray*)&g0::quant8_zero, 0 };
const MODEL_SECTION(EI_MODEL_SECTION) ALIGN(16) int32_t tensor_data28[48] = { -2453, -413, 1321, -1399, 677, 15546, -356, -4130, -8518, -2488, -6280, -632, -2945, -5529, 2166, -2061, -5588, 11196, -3573, -2386, 266, -1523, -2043, -1393, 20072, -1083, -874, -1569, -1443, -1329, 5585, -11094, 1293, 13706, -340, 8138, -960, -2853, 5658, 1467, -3975, 1359, 3233, 6702, -73, 12079, -1452, -2455, };
const TfArray<48, float> quant28_scale = { 48, { 0.00024730886798352003, 0.00013492560537997633, 0.00057381420629099011, 0.00017240345187019557, 0.00012160098413005471, 0.00019253435311838984, 0.0001355098356725648, 0.00020298386516515166, 0.00025591446319594979, 0.00012954259000252932, 0.00042501205462031066, 0.00024003318685572594, 0.00016716482059564441, 0.00015582347987219691, 0.0001994972990360111, 0.00048700362094677985, 0.00024337090144399554, 0.00010252044012304395, 0.00017405230028089136, 0.0004363694170024246, 0.00028848167858086526, 0.00028474919963628054, 0.00016003547352738678, 0.00068869453389197588, 0.00031108674011193216, 0.00029424548847600818, 0.00024234654847532511, 0.00013335408584680408, 0.00016651093028485775, 0.00016689392214175314, 0.00036063272273167968, 0.00064893491799011827, 0.00043383915908634663, 0.00013929659326095134, 0.00056819221936166286, 0.00015423211152665317, 0.00015366815205197781, 5.3423002100316808e-05, 0.00027194316498935223, 0.00110817258246243, 0.0002932735369540751, 0.00081064878031611443, 0.00052983278874307871, 0.00020982440037187189, 0.00015661621000617743, 9.7560929134488106e-05, 0.00020522446720860898, 0.0003297943330835551, } };
const TfLiteAffineQuantization quant28 = { (TfLiteFloatArray*)&quant28_scale, (TfLiteIntArray*)&g0::quant6_zero, 0 };
const MODEL_SECTION(EI_MODEL_SECTION) ALIGN(16) int8_t tensor_data29[1*3*3*48] = { 
  /* [0][0][][] */ -6,-23,36,4,127,-19,-23,-15,-19,89,-27,42,84,13,127,-26,36,-90,-2,-8,-14,-13,-66,36,-127,58,36,-59,30,31,-19,6,-45,37,10,8,114,68,25,-7,70,13,-14,3,-93,-51,-37,-17, 14,-93,-83,-9,-96,-20,21,11,33,29,51,127,2,23,-45,127,-17,-73,3,-41,-75,-127,-66,88,-70,-79,6,92,39,16,89,14,-127,-29,-42,26,127,-127,96,9,68,-13,-16,-13,-61,-47,84,3, 32,-14,-21,127,89,-2,-85,-26,-19,-20,-24,-7,37,-19,-86,-45,70,88,-22,-2,-18,6,-33,7,-59,-78,-17,51,20,26,-85,4,5,69,22,15,-1,114,-127,-8,49,-11,-2,22,-127,6,-65,43, 
  /* [0][1][][] */ -103,-35,127,12,-48,-54,71,-5,31,127,15,38,55,41,46,44,25,-127,79,40,104,-3,56,-32,-37,4,38,-61,45,77,12,64,21,-98,4,127,19,30,-57,-112,45,83,-19,-61,16,-103,-53,40, 127,-61,-81,-49,-2,-127,127,127,127,40,127,-55,-127,10,-55,-32,127,-100,116,127,127,90,127,-127,-1,-10,92,-22,127,127,-127,127,32,-59,127,-86,-61,117,-121,116,-127,-127,127,-127,80,-127,127,-110, -4,-89,13,77,19,-20,-46,-20,-18,-126,-25,53,68,3,-62,51,-4,56,30,20,-30,-18,47,-30,-32,-10,-127,64,-51,22,55,32,-16,-126,-6,-37,62,7,95,7,51,45,-43,-24,47,-26,-50,127, 
  /* [0][2][][] */ -11,127,27,-8,96,-8,-33,-2,-14,22,-15,17,43,39,47,20,-113,28,13,-36,1,14,-20,26,-21,3,21,26,-29,-93,-44,-4,-21,-21,-21,65,-64,82,-12,87,33,13,-1,14,36,-19,-5,-22, 4,69,-54,16,27,-77,-2,68,41,38,35,-34,6,127,-65,-74,-47,32,127,-59,-57,78,-16,58,89,127,-1,127,-54,-102,-35,-3,90,-127,-82,19,-82,-91,-61,-127,52,-32,-47,57,84,17,35,6, 15,117,-6,36,73,-14,-54,3,-18,-3,7,-7,40,-9,-54,-2,-64,66,11,-23,-46,3,-23,-3,-34,14,-40,28,34,-71,9,6,16,-12,0,-10,-61,56,-17,-3,-41,-12,1,-26,21,10,4,21, 
};
const TfArray<48, float> quant29_scale = { 48, { 0.010510627180337906, 0.0057343379594385624, 0.02438710443675518, 0.0073271463625133038, 0.005168041680008173, 0.0081827100366353989, 0.0057591679506003857, 0.0086268140003085136, 0.010876365005970001, 0.005505559965968132, 0.018063012510538101, 0.010201410390436649, 0.0071045048534870148, 0.0066224974580109119, 0.0084786349907517433, 0.020697653293609619, 0.010343262925744057, 0.0043571186251938343, 0.0073972223326563835, 0.018545700237154961, 0.012260471470654011, 0.012101840227842331, 0.0068015074357390404, 0.029269516468048096, 0.013221186585724354, 0.012505433522164822, 0.010299728251993656, 0.0056675486266613007, 0.0070767141878604889, 0.0070929918438196182, 0.015326890163123608, 0.027579732239246368, 0.01843816414475441, 0.0059201051481068134, 0.024148168042302132, 0.0065548648126423359, 0.0065308962948620319, 0.0022704775910824537, 0.011557584628462791, 0.047097332775592804, 0.012464125640690327, 0.034452572464942932, 0.022517893463373184, 0.008917536586523056, 0.0066561889834702015, 0.0041463393718004227, 0.0087220398709177971, 0.014016258530318737, } };
const TfLiteAffineQuantization quant29 = { (TfLiteFloatArray*)&quant29_scale, (TfLiteIntArray*)&g0::quant6_zero, 3 };
const MODEL_SECTION(EI_MODEL_SECTION) ALIGN(16) int32_t tensor_data30[48] = { 3526, 2135, 46492, -2389, -1885, 6190, -551, 2111, 2353, -361, 5923, 866, 3212, 3397, 5688, 3454, 2285, 3032, -793, 5241, 1165, 223, 1052, 21911, 27813, 2958, 3099, -638, -141, 6191, 5903, 12324, 4156, 6417, 7913, -826, 820, 1044, 6677, 14149, 1316, 17953, 15359, 5317, 3102, 2078, 2651, 155, };
const TfArray<48, float> quant30_scale = { 48, { 0.00021399129764176905, 0.00021955186093691736, 2.9062453904771246e-05, 0.00023405454703606665, 0.0002333999436814338, 0.00016860626055859029, 0.00026584832812659442, 0.00035884566023014486, 0.00022979652567300946, 0.00025536821340210736, 0.00013553026656154543, 0.00036762570380233228, 0.00018322005053050816, 0.00023673634859733284, 0.00012972590047866106, 0.00020354625303298235, 0.00023802212672308087, 0.00018238046322949231, 0.00038508191937580705, 0.00016138629871420562, 0.0003066876670345664, 0.00032556080259382725, 0.00025203364202752709, 4.9195634346688166e-05, 5.8935536799253896e-05, 0.00026394490851089358, 0.0002789857389871031, 0.00047046676627360284, 0.00053293397650122643, 0.00013666563609149307, 0.00015982524200808257, 8.886015712050721e-05, 0.00018079848086927086, 0.00013986091653350741, 0.00011804570385720581, 0.0002791376318782568, 0.00029613298829644918, 0.00022676755907014012, 0.00012121118197683245, 7.1042319177649915e-05, 0.00018316264322493225, 5.8237008488504216e-05, 7.1410388045478612e-05, 0.00017466576537117362, 0.00023633551609236747, 0.00032114738132804632, 0.00027329396107234061, 0.00032452328014187515, } };
const TfLiteAffineQuantization quant30 = { (TfLiteFloatArray*)&quant30_scale, (TfLiteIntArray*)&g0::quant6_zero, 0 };
const MODEL_SECTION(EI_MODEL_SECTION) ALIGN(16) int8_t tensor_data31[48*1*1*8] = { 
  /* [0][0][][] */ 13,28,34,-127,-105,7,17,97, 
  /* [1][0][][] */ 92,12,13,19,-81,18,127,-11, 
  /* [2][0][][] */ -44,127,-50,-37,-21,53,-68,-81, 
  /* [3][0][][] */ 69,-59,-83,127,-122,-24,24,-36, 
  /* [4][0][][] */ 62,-37,44,-14,-127,9,56,33, 
  /* [5][0][][] */ -12,55,-18,-96,-127,2,-38,16, 
  /* [6][0][][] */ 79,-14,56,58,98,-14,20,-127, 
  /* [7][0][][] */ 17,28,21,127,36,-4,-2,20, 
  /* [8][0][][] */ 33,29,45,-26,50,127,61,-75, 
  /* [9][0][][] */ 127,47,-49,-27,-74,-59,91,69, 
  /* [10][0][][] */ 5,72,-74,-41,2,127,78,-64, 
  /* [11][0][][] */ -30,-33,-127,103,-66,7,-12,77, 
  /* [12][0][][] */ -127,-118,66,56,48,-119,-36,30, 
  /* [13][0][][] */ 29,22,13,29,-30,127,8,-31, 
  /* [14][0][][] */ 11,-113,72,13,-84,-69,-127,115, 
  /* [15][0][][] */ -78,26,19,15,127,-6,-98,-43, 
  /* [16][0][][] */ 62,34,-88,-90,48,127,65,46, 
  /* [17][0][][] */ -70,100,-127,21,6,-14,12,-125, 
  /* [18][0][][] */ 34,1,-108,127,3,-23,-48,-83, 
  /* [19][0][][] */ 92,4,41,44,-24,38,127,30, 
  /* [20][0][][] */ 49,-48,-120,127,72,8,-53,-78, 
  /* [21][0][][] */ 5,80,127,-125,23,-10,35,-118, 
  /* [22][0][][] */ -107,-8,-119,43,-52,16,15,127, 
  /* [23][0][][] */ 113,-12,81,83,-127,82,65,-23, 
  /* [24][0][][] */ -11,-16,-127,51,-28,33,32,50, 
  /* [25][0][][] */ 33,-43,-90,127,26,19,-79,6, 
  /* [26][0][][] */ -49,17,127,-67,-40,30,51,1, 
  /* [27][0][][] */ -65,61,127,3,22,-9,65,23, 
  /* [28][0][][] */ -27,-101,37,-127,-29,7,9,-45, 
  /* [29][0][][] */ -127,-67,-68,33,35,-113,-21,60, 
  /* [30][0][][] */ -127,66,114,2,22,-27,80,11, 
  /* [31][0][][] */ -58,57,91,-127,-44,31,33,74, 
  /* [32][0][][] */ -56,65,98,-70,-8,15,-32,127, 
  /* [33][0][][] */ 4,127,-62,48,22,-3,-124,-47, 
  /* [34][0][][] */ 73,11,127,-75,-80,-49,33,-45, 
  /* [35][0][][] */ 83,-18,11,75,75,-26,1,-127, 
  /* [36][0][][] */ 30,65,121,-127,51,-25,28,-115, 
  /* [37][0][][] */ -42,-69,127,80,-20,-127,111,-10, 
  /* [38][0][][] */ 53,2,66,15,-69,-85,127,8, 
  /* [39][0][][] */ 63,-96,24,61,-127,-28,113,54, 
  /* [40][0][][] */ -80,28,-127,109,-21,80,-84,124, 
  /* [41][0][][] */ -127,9,-67,-1,127,2,-70,2, 
  /* [42][0][][] */ -95,89,-55,-58,127,43,-115,-61, 
  /* [43][0][][] */ 99,92,2,127,-9,-105,81,85, 
  /* [44][0][][] */ -1,41,92,29,16,-127,-2,-18, 
  /* [45][0][][] */ 5,-94,127,64,-46,-25,-123,4, 
  /* [46][0][][] */ 35,-127,-123,30,-86,64,-34,-8, 
  /* [47][0][][] */ -127,-5,60,0,70,24,-80,-12, 
};
const TfArray<48, float> quant31_scale = { 48, { 0.0034807180054485798, 0.0035711643286049366, 0.00047272111987695098, 0.0038070606533437967, 0.0037964130751788616, 0.0027424986474215984, 0.0043242089450359344, 0.0058368751779198647, 0.0037378009874373674, 0.0041537424549460411, 0.0022044945508241653, 0.0059796888381242752, 0.0029802019707858562, 0.0038506819400936365, 0.0021100824233144522, 0.0033108219504356384, 0.003871596185490489, 0.0029665455222129822, 0.0062636262737214565, 0.0026250609662383795, 0.004988489206880331, 0.0052954736165702343, 0.0040995031595230103, 0.00080020137829706073, 0.00095862767193466425, 0.0042932480573654175, 0.0045378981158137321, 0.007652470376342535, 0.0086685437709093094, 0.0022229619789868593, 0.0025996691547334194, 0.0014453724725171924, 0.0029408135451376438, 0.0022749355994164944, 0.0019200957613065839, 0.0045403684489428997, 0.004816809669137001, 0.0036885326262563467, 0.0019715845119208097, 0.0011555529199540615, 0.0029792683199048042, 0.00094726559473201632, 0.0011615398107096553, 0.0028410607483237982, 0.0038441622164100409, 0.0052236863411962986, 0.0044453172013163567, 0.0052785975858569145, } };
const TfLiteAffineQuantization quant31 = { (TfLiteFloatArray*)&quant31_scale, (TfLiteIntArray*)&g0::quant6_zero, 0 };
const MODEL_SECTION(EI_MODEL_SECTION) ALIGN(16) int32_t tensor_data32[8] = { -13544, 3427, -15201, 7770, 7809, 355, 12455, 4157, };
const TfArray<8, float> quant32_scale = { 8, { 0.00013258932449389249, 9.0175424702465534e-05, 8.7816100858617574e-05, 5.3244293667376041e-05, 0.00015194326988421381, 0.00012075885024387389, 0.00011529016774147749, 0.00010362592001911253, } };
const TfLiteAffineQuantization quant32 = { (TfLiteFloatArray*)&quant32_scale, (TfLiteIntArray*)&g0::quant8_zero, 0 };
const MODEL_SECTION(EI_MODEL_SECTION) ALIGN(16) int8_t tensor_data33[8*1*1*48] = { 
  /* [0][0][][] */ 58,98,-28,74,-5,0,-25,3,60,-56,4,-10,6,13,-48,-56,4,-23,50,-9,-58,-36,-20,20,24,16,38,19,24,5,-20,38,-64,5,127,-113,-31,12,-2,108,-16,16,13,8,-19,40,28,-48, 
  /* [1][0][][] */ -3,-51,45,43,-24,-5,-3,-25,39,-42,102,30,10,19,-40,-83,127,56,-8,5,-59,16,24,-24,-60,-106,-30,-58,-20,-64,41,-52,7,-16,-24,0,-5,-15,74,-50,-6,30,-69,31,64,42,34,48, 
  /* [2][0][][] */ 78,-35,-21,-1,111,127,45,79,-38,-21,-13,-4,-6,38,40,22,-28,-34,69,-87,-51,-52,-31,61,-88,-94,123,31,55,-56,-47,16,-106,73,99,11,-18,-1,-14,10,19,71,27,-41,-24,23,52,-35, 
  /* [3][0][][] */ 52,-18,10,-36,82,106,22,30,-50,-27,16,44,-127,31,61,-2,-3,7,54,-95,-77,5,20,91,-10,-10,48,18,55,-55,0,-26,-127,35,-81,-110,13,-55,45,-34,63,-95,-117,-39,-49,37,-12,43, 
  /* [4][0][][] */ 24,33,-34,-36,-9,-13,-9,-22,-4,-11,-10,-23,-30,-23,73,51,-40,-17,-38,50,39,-7,-27,3,-61,-40,-8,45,-21,18,-18,18,-40,-17,1,-127,-5,25,-1,49,5,-14,-30,-24,45,-7,71,-13, 
  /* [5][0][][] */ 53,65,-98,50,-17,-4,-19,39,-99,-54,-56,-18,29,5,48,20,34,-58,47,127,-69,-41,-45,55,22,-15,-55,65,41,43,-61,1,-31,-5,-68,-2,2,38,-34,74,10,75,-24,-61,112,26,4,-53, 
  /* [6][0][][] */ -22,-76,11,-32,-52,-33,-78,-73,-40,-65,-124,42,-55,-56,95,94,-127,19,20,-31,12,51,77,22,-16,-3,-58,91,-66,-55,36,70,10,-56,83,31,20,44,-24,-87,-10,-59,-37,8,-47,-17,-4,69, 
  /* [7][0][][] */ 76,7,-25,38,28,29,21,-18,88,-11,-19,-17,64,12,-6,-36,-68,-3,-34,-16,16,-29,-24,-17,58,-127,24,-8,-10,84,-23,7,-79,21,-61,-46,-6,8,15,13,33,83,-39,-11,-37,30,35,-21, 
};
const TfArray<8, float> quant33_scale = { 8, { 0.0056350464001297951, 0.0038324554916471243, 0.0037321841809898615, 0.0022628824226558208, 0.0064575886353850365, 0.0051322509534657001, 0.0048998319543898106, 0.0044041015207767487, } };
const TfLiteAffineQuantization quant33 = { (TfLiteFloatArray*)&quant33_scale, (TfLiteIntArray*)&g0::quant8_zero, 0 };
const MODEL_SECTION(EI_MODEL_SECTION) ALIGN(16) int32_t tensor_data34[48] = { 786, 6468, 4467, 400, 40, -385, 5810, 9725, -2675, -4793, -1044, 1187, 5291, 4276, 22938, 15530, 572, -2479, -1561, 6474, 12244, -869, 680, -2441, 3277, 2950, 5469, 18361, 6288, 12723, 3158, 3982, -2274, -3303, -1921, 3863, 4036, 664, 1347, 3383, 5803, 4376, -5119, 5492, -1216, 175, 5594, 521, };
const TfArray<48, float> quant34_scale = { 48, { 0.00010985843982780352, 0.00012360524851828814, 0.00047275118413381279, 6.4863714214880019e-05, 0.00041498028440400958, 0.00072706770151853561, 0.00015822259592823684, 0.00017461442621424794, 4.9718066293280572e-05, 0.00019442214397713542, 0.00038818042958155274, 0.00022285756131168455, 0.00022860693570692092, 0.00014325593656394631, 7.6789132435806096e-05, 6.1102175095584244e-05, 0.00015596201410517097, 0.00058608170365914702, 6.3502775446977466e-05, 0.00013641802070196718, 8.2681253843475133e-05, 0.00072277022991329432, 0.0010908922413364053, 0.00022653523774351925, 9.5097821031231433e-05, 9.7012431069742888e-05, 0.0001059801725205034, 0.00012839458941016346, 0.00018093087419401854, 0.00017337690223939717, 0.00047497745254077017, 0.00017461275274399668, 9.2806556494906545e-05, 0.00034425425110384822, 8.4040861111134291e-05, 6.1571925471071154e-05, 0.000335016316967085, 0.00038577057421207428, 9.5871138910297304e-05, 0.00017280578322242945, 9.3597351224161685e-05, 0.00023653707467019558, 0.00014005533012095839, 0.00046637869672849774, 8.9238361397292465e-05, 0.0002806076081469655, 0.00010188376472797245, 0.00049008720088750124, } };
const TfLiteAffineQuantization quant34 = { (TfLiteFloatArray*)&quant34_scale, (TfLiteIntArray*)&g0::quant6_zero, 0 };
const MODEL_SECTION(EI_MODEL_SECTION) ALIGN(16) int8_t tensor_data35[1*3*3*48] = { 
  /* [0][0][][] */ -18,-104,-83,26,-87,12,-39,-94,127,115,47,-41,7,15,-85,-108,73,-69,24,-39,-1,-108,-53,-47,112,120,-5,-127,-5,-58,61,36,61,58,38,10,73,16,40,0,-127,3,27,28,-22,-27,-11,-88, 75,-6,20,43,-123,54,-2,-1,113,104,127,63,12,-82,-127,-127,77,-27,80,-70,-87,118,127,39,125,103,35,-84,-62,-74,-118,102,92,127,54,93,-24,41,45,-71,-84,-93,-18,-58,-37,81,-37,105, 82,12,25,52,-76,26,-31,-6,18,22,-26,-16,-52,6,-74,-38,31,54,76,3,-57,-14,-64,103,106,29,14,-31,-13,-50,11,17,37,85,-20,61,-10,-24,35,-6,-55,-17,15,-14,2,85,-8,-1, 
  /* [0][1][][] */ 21,-127,126,84,97,-83,-127,-127,127,127,59,-85,8,8,-118,-63,77,127,66,-111,-65,93,30,-100,127,112,108,-119,-2,-71,-79,114,124,-4,106,44,33,127,47,-21,-28,-26,86,83,-112,-6,-72,94, 127,-10,7,127,127,-127,-82,0,126,124,111,49,-28,-127,-111,-117,127,66,127,-127,-127,-127,-115,82,59,127,127,-85,-127,-75,127,127,127,11,127,127,-18,109,127,-127,10,-127,64,-77,-127,127,-102,-127, 73,6,-127,97,82,-55,-36,-32,5,47,22,-12,-127,-10,-61,-2,33,-85,111,-8,-58,17,65,127,28,37,-5,-10,-17,-52,-56,13,70,-6,9,105,-12,-1,44,-5,-15,5,17,-27,-72,37,-34,17, 
  /* [0][2][][] */ 65,-71,-6,52,6,52,-33,-93,76,49,54,56,13,21,-7,-58,13,-24,-2,-44,34,1,9,-68,29,46,59,-79,1,-116,-3,14,84,-66,72,1,-127,43,8,0,22,-11,122,-127,-52,-51,-45,-17, 30,13,-8,50,16,86,-26,0,61,10,111,-127,-35,-90,-23,-12,29,8,80,-49,13,-5,-22,74,5,18,62,-54,-74,-127,-48,-5,78,-70,74,38,8,72,40,-55,122,-61,127,69,-90,61,-127,14, -22,3,-23,87,-38,48,-11,-2,36,-21,-35,35,-69,-19,12,34,8,21,37,-6,20,28,4,69,34,62,23,-10,0,-26,-11,-28,-16,-48,33,55,-12,-79,42,8,63,3,51,-39,-6,-52,-34,-16, 
};
const TfArray<48, float> quant35_scale = { 48, { 0.00466898363083601, 0.0052532227709889412, 0.02009192481637001, 0.0027567078359425068, 0.017636662349104881, 0.030900375917553902, 0.0067244600504636765, 0.0074211130850017071, 0.0021130177192389965, 0.0082629406824707985, 0.016497667878866196, 0.0094714462757110596, 0.0097157945856451988, 0.0060883774422109127, 0.0032635380048304796, 0.0025968423578888178, 0.006628385279327631, 0.02490847185254097, 0.0026988680474460125, 0.0057977656833827496, 0.0035139531828463078, 0.03071773424744606, 0.046362921595573425, 0.0096277473494410515, 0.004041657317429781, 0.0041230283677577972, 0.004504157230257988, 0.0054567698389291763, 0.0076895621605217457, 0.0073685185052454472, 0.020186541602015495, 0.007421041838824749, 0.0039442786946892738, 0.01463080570101738, 0.0035717366263270378, 0.0026168068870902061, 0.01423819363117218, 0.016395248472690582, 0.0040745232254266739, 0.0073442459106445312, 0.0039778873324394226, 0.010052825324237347, 0.0059523512609302998, 0.01982109434902668, 0.0037926302757114172, 0.011925823055207729, 0.0043300599791109562, 0.020828705281019211, } };
const TfLiteAffineQuantization quant35 = { (TfLiteFloatArray*)&quant35_scale, (TfLiteIntArray*)&g0::quant6_zero, 3 };
const MODEL_SECTION(EI_MODEL_SECTION) ALIGN(16) int32_t tensor_data36[48] = { 10311, 5463, 58327, 3105, 3211, 3060, -4286, 4806, 3103, -2832, -1089, 6552, -3193, -4867, 9199, 2223, -1784, -93, -2366, 3293, 1714, 6132, 1669, -3531, 25, -5629, 2377, -1984, 3662, 7500, 2566, 585, 7376, 12237, 7083, 4773, 4617, -4683, 101, 5019, -953, -4397, 4072, 5211, 236, -7409, -11310, 1600, };
const TfArray<48, float> quant36_scale = { 48, { 0.00039734199526719749, 0.00062931783031672239, 2.5748558982741088e-05, 0.0005368406418710947, 0.00056757807033136487, 0.00049110566033050418, 0.0017247569048777223, 0.00098003773018717766, 0.0011111971689388156, 0.00057209812803193927, 0.00019501798669807613, 0.00050831056432798505, 0.00047895679017528892, 0.0010284457821398973, 0.00051746866665780544, 0.0017299881437793374, 0.00082739302888512611, 0.00042196019785478711, 0.0010036132298409939, 0.0017188709462061524, 0.00088654569117352366, 0.00025619679945521057, 0.00011989963968517259, 0.00046787795145064592, 0.00070679857162758708, 0.00085410289466381073, 0.0010263400617986917, 0.00045473242062143981, 0.0010809691157191992, 0.00057168537750840187, 0.00022912315034773201, 0.00063091889023780823, 0.0007390576065517962, 0.0001732345117488876, 0.00058785197325050831, 0.00044213980436325073, 0.00049262202810496092, 0.0015215188032016158, 0.00047790553071536124, 0.00063887785654515028, 0.00085273338481783867, 0.00067712325835600495, 0.00068360043223947287, 0.00013503088848665357, 0.0012774972710758448, 0.0005224782507866621, 0.00058703607646748424, 0.00034384787431918085, } };
const TfLiteAffineQuantization quant36 = { (TfLiteFloatArray*)&quant36_scale, (TfLiteIntArray*)&g0::quant6_zero, 0 };
const MODEL_SECTION(EI_MODEL_SECTION) ALIGN(16) int8_t tensor_data37[48*1*1*8] = { 
  /* [0][0][][] */ -127,-74,21,-107,-72,10,-17,18, 
  /* [1][0][][] */ -127,-17,107,-14,-48,11,22,0, 
  /* [2][0][][] */ 20,20,26,127,41,-20,-26,5, 
  /* [3][0][][] */ -95,-88,-33,-18,33,127,-40,-35, 
  /* [4][0][][] */ -17,-29,4,2,-20,11,-127,-44, 
  /* [5][0][][] */ 2,-42,-11,-4,-8,20,-127,-62, 
  /* [6][0][][] */ 127,6,13,-13,-56,16,0,-7, 
  /* [7][0][][] */ -127,-34,-20,1,80,15,-9,9, 
  /* [8][0][][] */ 10,47,3,-20,-30,-127,46,14, 
  /* [9][0][][] */ 71,22,-4,-5,-25,-10,-5,127, 
  /* [10][0][][] */ 100,-25,-99,-12,-70,-22,23,127, 
  /* [11][0][][] */ -127,96,6,-63,81,-90,7,21, 
  /* [12][0][][] */ 127,-30,-113,-2,59,-16,-13,-25, 
  /* [13][0][][] */ 127,10,0,-17,-23,31,3,-14, 
  /* [14][0][][] */ -113,-127,87,-22,80,-24,-33,-112, 
  /* [15][0][][] */ 34,57,13,-12,1,-127,-18,11, 
  /* [16][0][][] */ -6,-80,11,1,14,127,14,13, 
  /* [17][0][][] */ 22,-79,-35,-5,-31,127,-52,-2, 
  /* [18][0][][] */ 50,-48,-27,-6,-22,53,127,-13, 
  /* [19][0][][] */ -4,7,-5,-127,-4,40,-7,-16, 
  /* [20][0][][] */ -78,-42,68,-3,36,83,2,-127, 
  /* [21][0][][] */ -35,2,29,-23,-40,15,-127,-84, 
  /* [22][0][][] */ 75,-11,1,127,-18,-17,57,35, 
  /* [23][0][][] */ 127,-19,-115,-20,33,9,3,1, 
  /* [24][0][][] */ -46,18,43,36,10,-10,-127,-109, 
  /* [25][0][][] */ 127,11,-88,17,18,2,10,25, 
  /* [26][0][][] */ -8,65,-31,-127,-24,20,4,-2, 
  /* [27][0][][] */ 127,-3,-107,-36,-85,23,25,90, 
  /* [28][0][][] */ -127,-15,-25,18,58,11,-6,25, 
  /* [29][0][][] */ -9,-118,-22,-127,-7,26,-15,-22, 
  /* [30][0][][] */ -16,119,110,33,27,-127,95,47, 
  /* [31][0][][] */ -83,-1,-127,44,21,-15,81,68, 
  /* [32][0][][] */ -6,-127,2,-127,-19,17,-4,-19, 
  /* [33][0][][] */ 35,-115,-24,-127,31,22,10,-40, 
  /* [34][0][][] */ -38,-36,26,-98,37,-43,127,54, 
  /* [35][0][][] */ -127,0,63,10,-104,-21,43,76, 
  /* [36][0][][] */ -127,7,82,9,-77,49,-33,53, 
  /* [37][0][][] */ 127,10,2,-9,-83,16,-1,7, 
  /* [38][0][][] */ -57,-12,109,52,67,-57,55,127, 
  /* [39][0][][] */ -127,-4,73,-4,-70,10,2,-3, 
  /* [40][0][][] */ 13,9,74,2,25,1,127,49, 
  /* [41][0][][] */ 127,-15,-77,2,44,10,4,-3, 
  /* [42][0][][] */ -21,-127,39,-2,17,1,7,-27, 
  /* [43][0][][] */ -4,127,91,13,34,-98,85,-24, 
  /* [44][0][][] */ 9,-9,-9,118,3,-127,-5,2, 
  /* [45][0][][] */ 127,-35,48,-6,-61,118,9,0, 
  /* [46][0][][] */ 23,127,-2,93,2,103,39,28, 
  /* [47][0][][] */ -22,50,-6,-7,23,-8,127,85, 
};
const TfArray<48, float> quant37_scale = { 48, { 0.0049809375777840614, 0.0078889038413763046, 0.00032277475111186504, 0.0067296423949301243, 0.0071149561554193497, 0.0061563253402709961, 0.021620936691761017, 0.012285402975976467, 0.013929571025073528, 0.0071716182865202427, 0.0024446758907288313, 0.006372000090777874, 0.0060040312819182873, 0.012892229482531548, 0.0064868028275668621, 0.021686514839529991, 0.010371903888881207, 0.0052895424887537956, 0.012580936774611473, 0.02154715359210968, 0.011113420128822327, 0.0032115916255861521, 0.0015030191279947758, 0.0058651510626077652, 0.0088601745665073395, 0.010706729255616665, 0.012865833006799221, 0.0057003633119165897, 0.013550642877817154, 0.0071664438582956791, 0.002872206037864089, 0.0079089738428592682, 0.0092645622789859772, 0.002171606058254838, 0.0073691029101610184, 0.00554250692948699, 0.0061753340996801853, 0.019073216244578362, 0.0059908530674874783, 0.0080087445676326752, 0.010689561255276203, 0.0084881754592061043, 0.0085693709552288055, 0.0016926990356296301, 0.016014249995350838, 0.0065496009774506092, 0.0073588746599853039, 0.0043103541247546673, } };
const TfLiteAffineQuantization quant37 = { (TfLiteFloatArray*)&quant37_scale, (TfLiteIntArray*)&g0::quant6_zero, 0 };
const MODEL_SECTION(EI_MODEL_SECTION) ALIGN(16) int32_t tensor_data38[8] = { 4160, -4731, -1197, 4133, 2109, 1646, -2441, 2567, };
const TfArray<8, float> quant38_scale = { 8, { 7.9318371717818081e-05, 0.00014015365741215646, 7.6433410868048668e-05, 4.680744677898474e-05, 0.00011052537593059242, 0.00018798391101881862, 0.00012746882566716522, 0.00018277058552484959, } };
const TfLiteAffineQuantization quant38 = { (TfLiteFloatArray*)&quant38_scale, (TfLiteIntArray*)&g0::quant8_zero, 0 };
const MODEL_SECTION(EI_MODEL_SECTION) ALIGN(16) int8_t tensor_data39[8*1*1*8] = { 
  /* [0][0][][] */ -22,1,-55,-31,-20,37,-127,-20, 
  /* [1][0][][] */ 17,81,-6,127,13,11,-9,-34, 
  /* [2][0][][] */ 127,-4,-40,-71,-44,57,117,-43, 
  /* [3][0][][] */ 17,-127,24,-88,7,-62,19,70, 
  /* [4][0][][] */ 115,-11,-46,-1,22,2,-127,-34, 
  /* [5][0][][] */ 0,-30,2,23,-1,-127,-6,11, 
  /* [6][0][][] */ 110,-38,127,14,102,-33,-16,-5, 
  /* [7][0][][] */ -127,-7,-87,2,-105,16,32,2, 
};
const TfArray<4, int> tensor_dimension39 = { 4, { 8,1,1,8 } };
const TfArray<8, float> quant39_scale = { 8, { 0.0033710307907313108, 0.0059565305709838867, 0.0032484198454767466, 0.0019893164280802011, 0.0046973284333944321, 0.0079893162474036217, 0.0054174251854419708, 0.0077677499502897263, } };
const TfLiteAffineQuantization quant39 = { (TfLiteFloatArray*)&quant39_scale, (TfLiteIntArray*)&g0::quant8_zero, 0 };
const MODEL_SECTION(EI_MODEL_SECTION) ALIGN(16) int32_t tensor_data40[8] = { -13161, 4797, 989, -6701, 2305, -12576, 119, -134, };
const TfArray<8, float> quant40_scale = { 8, { 0.00026563767460174859, 0.00037394801620393991, 0.00021248345728963614, 0.0004451714048627764, 0.00030777399661019444, 0.00043827551417052746, 0.0021986435167491436, 0.001049788435921073, } };
const TfLiteAffineQuantization quant40 = { (TfLiteFloatArray*)&quant40_scale, (TfLiteIntArray*)&g0::quant8_zero, 0 };
const MODEL_SECTION(EI_MODEL_SECTION) ALIGN(16) int8_t tensor_data41[1*3*3*8] = { 
  /* [0][0][][] */ 5,14,3,-2,4,-4,10,60, 12,15,-36,127,-40,1,-3,57, -10,6,-15,4,-24,5,-5,37, 
  /* [0][1][][] */ 1,-1,127,-34,127,-3,-109,65, 127,-127,-111,5,-106,127,-13,-127, -27,4,0,-25,-22,0,127,62, 
  /* [0][2][][] */ 2,9,5,-7,-2,-2,16,66, 8,23,-51,-2,-18,-3,-9,-100, -1,5,-28,8,-21,-3,-5,60, 
};
const TfArray<4, int> tensor_dimension41 = { 4, { 1,3,3,8 } };
const TfArray<8, float> quant41_scale = { 8, { 0.011289601214230061, 0.015892790630459785, 0.0090305469930171967, 0.01891978457570076, 0.013080394826829433, 0.018626708537340164, 0.093442343175411224, 0.044616010040044785, } };
const TfLiteAffineQuantization quant41 = { (TfLiteFloatArray*)&quant41_scale, (TfLiteIntArray*)&g0::quant8_zero, 3 };
const MODEL_SECTION(EI_MODEL_SECTION) ALIGN(16) int32_t tensor_data42[8] = { 8469, 6779, 272, 18586, 1863, 5818, 78771, 14936, };
const TfArray<8, float> quant42_scale = { 8, { 0.00034635706106200814, 0.0003460592997726053, 0.00022341075236909091, 0.00013580566155724227, 0.0003008385538123548, 0.00038239039713516831, 1.0038903383247089e-05, 1.9570299627957866e-05, } };
const TfLiteAffineQuantization quant42 = { (TfLiteFloatArray*)&quant42_scale, (TfLiteIntArray*)&g0::quant8_zero, 0 };
const MODEL_SECTION(EI_MODEL_SECTION) ALIGN(16) int8_t tensor_data43[8*3*3*1] = { 
  /* [0][0][][] */ -57, 50, 9, 
  /* [0][1][][] */ -127, 121, -1, 
  /* [0][2][][] */ -42, 46, -1, 
  /* [1][0][][] */ 57, 127, 35, 
  /* [1][1][][] */ -69, -80, -44, 
  /* [1][2][][] */ 6, -42, 5, 
  /* [2][0][][] */ 30, 27, -47, 
  /* [2][1][][] */ 51, 69, -127, 
  /* [2][2][][] */ 20, 31, -59, 
  /* [3][0][][] */ 42, 54, 21, 
  /* [3][1][][] */ 52, 75, 26, 
  /* [3][2][][] */ -81, -127, -57, 
  /* [4][0][][] */ 5, -53, 48, 
  /* [4][1][][] */ 16, -127, 113, 
  /* [4][2][][] */ 5, -37, 32, 
  /* [5][0][][] */ 2, -56, 1, 
  /* [5][1][][] */ 0, 127, 3, 
  /* [5][2][][] */ 1, -75, 0, 
  /* [6][0][][] */ -7, -57, 28, 
  /* [6][1][][] */ -48, -127, 7, 
  /* [6][2][][] */ -3, -51, 13, 
  /* [7][0][][] */ 34, -127, 12, 
  /* [7][1][][] */ -22, -22, -24, 
  /* [7][2][][] */ -32, 48, -27, 
};
const TfArray<4, int> tensor_dimension43 = { 4, { 8,3,3,1 } };
const TfArray<8, float> quant43_scale = { 8, { 0.088524825870990753, 0.088448725640773773, 0.057101182639598846, 0.034710343927145004, 0.076890826225280762, 0.097734525799751282, 0.0025658267550170422, 0.0050019402988255024, } };
const TfLiteAffineQuantization quant43 = { (TfLiteFloatArray*)&quant43_scale, (TfLiteIntArray*)&g0::quant8_zero, 0 };
const TfArray<4, int> tensor_dimension44 = { 4, { 1,48,48,8 } };
const TfArray<1, float> quant44_scale = { 1, { 0.023529412224888802, } };
const TfLiteAffineQuantization quant44 = { (TfLiteFloatArray*)&quant44_scale, (TfLiteIntArray*)&g0::quant0_zero, 0 };
const TfArray<1, float> quant46_scale = { 1, { 0.070936471223831177, } };
const TfArray<1, int> quant46_zero = { 1, { 19 } };
const TfLiteAffineQuantization quant46 = { (TfLiteFloatArray*)&quant46_scale, (TfLiteIntArray*)&quant46_zero, 0 };
const TfArray<1, float> quant47_scale = { 1, { 0.079772531986236572, } };
const TfArray<1, int> quant47_zero = { 1, { 3 } };
const TfLiteAffineQuantization quant47 = { (TfLiteFloatArray*)&quant47_scale, (TfLiteIntArray*)&quant47_zero, 0 };
const TfArray<4, int> tensor_dimension48 = { 4, { 1,48,48,48 } };
const TfArray<4, int> tensor_dimension49 = { 4, { 1,49,49,48 } };
const TfArray<4, int> tensor_dimension50 = { 4, { 1,24,24,48 } };
const TfArray<4, int> tensor_dimension51 = { 4, { 1,24,24,8 } };
const TfArray<1, float> quant51_scale = { 1, { 0.061479069292545319, } };
const TfArray<1, int> quant51_zero = { 1, { -15 } };
const TfLiteAffineQuantization quant51 = { (TfLiteFloatArray*)&quant51_scale, (TfLiteIntArray*)&quant51_zero, 0 };
const TfArray<1, float> quant54_scale = { 1, { 0.080412939190864563, } };
const TfArray<1, int> quant54_zero = { 1, { -44 } };
const TfLiteAffineQuantization quant54 = { (TfLiteFloatArray*)&quant54_scale, (TfLiteIntArray*)&quant54_zero, 0 };
const TfArray<1, float> quant55_scale = { 1, { 0.089939065277576447, } };
const TfArray<1, int> quant55_zero = { 1, { -21 } };
const TfLiteAffineQuantization quant55 = { (TfLiteFloatArray*)&quant55_scale, (TfLiteIntArray*)&quant55_zero, 0 };
const TfArray<4, int> tensor_dimension57 = { 4, { 1,25,25,48 } };
const TfArray<4, int> tensor_dimension58 = { 4, { 1,12,12,48 } };
const TfArray<4, int> tensor_dimension59 = { 4, { 1,12,12,8 } };
const TfArray<1, float> quant59_scale = { 1, { 0.061649225652217865, } };
const TfArray<1, int> quant59_zero = { 1, { -11 } };
const TfLiteAffineQuantization quant59 = { (TfLiteFloatArray*)&quant59_scale, (TfLiteIntArray*)&quant59_zero, 0 };
const TfArray<1, float> quant62_scale = { 1, { 0.037529885768890381, } };
const TfArray<1, int> quant62_zero = { 1, { 2 } };
const TfLiteAffineQuantization quant62 = { (TfLiteFloatArray*)&quant62_scale, (TfLiteIntArray*)&quant62_zero, 0 };
const TfArray<1, float> quant63_scale = { 1, { 0.062590628862380981, } };
const TfArray<1, int> quant63_zero = { 1, { -1 } };
const TfLiteAffineQuantization quant63 = { (TfLiteFloatArray*)&quant63_scale, (TfLiteIntArray*)&quant63_zero, 0 };
const TfArray<1, float> quant64_scale = { 1, { 0.02222587913274765, } };
const TfLiteAffineQuantization quant64 = { (TfLiteFloatArray*)&quant64_scale, (TfLiteIntArray*)&g0::quant0_zero, 0 };
const TfArray<1, float> quant66_scale = { 1, { 0.058325756341218948, } };
const TfArray<1, int> quant66_zero = { 1, { 29 } };
const TfLiteAffineQuantization quant66 = { (TfLiteFloatArray*)&quant66_scale, (TfLiteIntArray*)&quant66_zero, 0 };
const TfArray<1, float> quant67_scale = { 1, { 0.08310285210609436, } };
const TfArray<1, int> quant67_zero = { 1, { 1 } };
const TfLiteAffineQuantization quant67 = { (TfLiteFloatArray*)&quant67_scale, (TfLiteIntArray*)&quant67_zero, 0 };
const TfArray<4, int> tensor_dimension69 = { 4, { 1,12,12,32 } };
const TfArray<1, float> quant69_scale = { 1, { 0.058817293494939804, } };
const TfLiteAffineQuantization quant69 = { (TfLiteFloatArray*)&quant69_scale, (TfLiteIntArray*)&g0::quant0_zero, 0 };
const TfArray<4, int> tensor_dimension70 = { 4, { 1,12,12,4 } };
const TfArray<1, float> quant70_scale = { 1, { 0.10654753446578979, } };
const TfArray<1, int> quant70_zero = { 1, { -5 } };
const TfLiteAffineQuantization quant70 = { (TfLiteFloatArray*)&quant70_scale, (TfLiteIntArray*)&quant70_zero, 0 };
const TfArray<1, float> quant71_scale = { 1, { 0.00390625, } };
const TfLiteAffineQuantization quant71 = { (TfLiteFloatArray*)&quant71_scale, (TfLiteIntArray*)&g0::quant0_zero, 0 };
const TfLiteConvParams opdata0 = { kTfLitePaddingSame, 2,2, kTfLiteActRelu6, 1,1 };
const TfArray<3, int> inputs0 = { 3, { 0,43,42 } };
const TfArray<1, int> outputs0 = { 1, { 44 } };
const TfLiteDepthwiseConvParams opdata1 = { kTfLitePaddingSame, 1,1, 1, kTfLiteActRelu6, 1,1 };
const TfArray<3, int> inputs1 = { 3, { 44,41,40 } };
const TfArray<1, int> outputs1 = { 1, { 45 } };
const TfLiteConvParams opdata2 = { kTfLitePaddingSame, 1,1, kTfLiteActNone, 1,1 };
const TfArray<3, int> inputs2 = { 3, { 45,39,38 } };
const TfArray<1, int> outputs2 = { 1, { 46 } };
const TfLiteAddParams opdata3 = { kTfLiteActNone };
const TfArray<2, int> inputs3 = { 2, { 44,46 } };
const TfArray<1, int> outputs3 = { 1, { 47 } };
const TfLiteConvParams opdata4 = { kTfLitePaddingSame, 1,1, kTfLiteActRelu6, 1,1 };
const TfArray<3, int> inputs4 = { 3, { 47,37,36 } };
const TfArray<1, int> outputs4 = { 1, { 48 } };
const TfArray<2, int> inputs5 = { 2, { 48,1 } };
const TfArray<1, int> outputs5 = { 1, { 49 } };
const TfLiteDepthwiseConvParams opdata6 = { kTfLitePaddingValid, 2,2, 1, kTfLiteActRelu6, 1,1 };
const TfArray<3, int> inputs6 = { 3, { 49,35,34 } };
const TfArray<1, int> outputs6 = { 1, { 50 } };
const TfLiteConvParams opdata7 = { kTfLitePaddingSame, 1,1, kTfLiteActNone, 1,1 };
const TfArray<3, int> inputs7 = { 3, { 50,33,32 } };
const TfArray<1, int> outputs7 = { 1, { 51 } };
const TfLiteConvParams opdata8 = { kTfLitePaddingSame, 1,1, kTfLiteActRelu6, 1,1 };
const TfArray<3, int> inputs8 = { 3, { 51,31,30 } };
const TfArray<1, int> outputs8 = { 1, { 52 } };
const TfLiteDepthwiseConvParams opdata9 = { kTfLitePaddingSame, 1,1, 1, kTfLiteActRelu6, 1,1 };
const TfArray<3, int> inputs9 = { 3, { 52,29,28 } };
const TfArray<1, int> outputs9 = { 1, { 53 } };
const TfLiteConvParams opdata10 = { kTfLitePaddingSame, 1,1, kTfLiteActNone, 1,1 };
const TfArray<3, int> inputs10 = { 3, { 53,27,26 } };
const TfArray<1, int> outputs10 = { 1, { 54 } };
const TfLiteAddParams opdata11 = { kTfLiteActNone };
const TfArray<2, int> inputs11 = { 2, { 51,54 } };
const TfArray<1, int> outputs11 = { 1, { 55 } };
const TfLiteConvParams opdata12 = { kTfLitePaddingSame, 1,1, kTfLiteActRelu6, 1,1 };
const TfArray<3, int> inputs12 = { 3, { 55,25,24 } };
const TfArray<1, int> outputs12 = { 1, { 56 } };
const TfArray<2, int> inputs13 = { 2, { 56,1 } };
const TfArray<1, int> outputs13 = { 1, { 57 } };
const TfLiteDepthwiseConvParams opdata14 = { kTfLitePaddingValid, 2,2, 1, kTfLiteActRelu6, 1,1 };
const TfArray<3, int> inputs14 = { 3, { 57,23,22 } };
const TfArray<1, int> outputs14 = { 1, { 58 } };
const TfLiteConvParams opdata15 = { kTfLitePaddingSame, 1,1, kTfLiteActNone, 1,1 };
const TfArray<3, int> inputs15 = { 3, { 58,21,20 } };
const TfArray<1, int> outputs15 = { 1, { 59 } };
const TfLiteConvParams opdata16 = { kTfLitePaddingSame, 1,1, kTfLiteActRelu6, 1,1 };
const TfArray<3, int> inputs16 = { 3, { 59,19,18 } };
const TfArray<1, int> outputs16 = { 1, { 60 } };
const TfLiteDepthwiseConvParams opdata17 = { kTfLitePaddingSame, 1,1, 1, kTfLiteActRelu6, 1,1 };
const TfArray<3, int> inputs17 = { 3, { 60,17,16 } };
const TfArray<1, int> outputs17 = { 1, { 61 } };
const TfLiteConvParams opdata18 = { kTfLitePaddingSame, 1,1, kTfLiteActNone, 1,1 };
const TfArray<3, int> inputs18 = { 3, { 61,15,14 } };
const TfArray<1, int> outputs18 = { 1, { 62 } };
const TfLiteAddParams opdata19 = { kTfLiteActNone };
const TfArray<2, int> inputs19 = { 2, { 59,62 } };
const TfArray<1, int> outputs19 = { 1, { 63 } };
const TfLiteConvParams opdata20 = { kTfLitePaddingSame, 1,1, kTfLiteActRelu6, 1,1 };
const TfArray<3, int> inputs20 = { 3, { 63,13,12 } };
const TfArray<1, int> outputs20 = { 1, { 64 } };
const TfLiteDepthwiseConvParams opdata21 = { kTfLitePaddingSame, 1,1, 1, kTfLiteActRelu6, 1,1 };
const TfArray<3, int> inputs21 = { 3, { 64,11,10 } };
const TfArray<1, int> outputs21 = { 1, { 65 } };
const TfLiteConvParams opdata22 = { kTfLitePaddingSame, 1,1, kTfLiteActNone, 1,1 };
const TfArray<3, int> inputs22 = { 3, { 65,9,8 } };
const TfArray<1, int> outputs22 = { 1, { 66 } };
const TfLiteAddParams opdata23 = { kTfLiteActNone };
const TfArray<2, int> inputs23 = { 2, { 63,66 } };
const TfArray<1, int> outputs23 = { 1, { 67 } };
const TfLiteConvParams opdata24 = { kTfLitePaddingSame, 1,1, kTfLiteActRelu6, 1,1 };
const TfArray<3, int> inputs24 = { 3, { 67,7,6 } };
const TfArray<1, int> outputs24 = { 1, { 68 } };
const TfLiteConvParams opdata25 = { kTfLitePaddingValid, 1,1, kTfLiteActRelu, 1,1 };
const TfArray<3, int> inputs25 = { 3, { 68,5,4 } };
const TfArray<1, int> outputs25 = { 1, { 69 } };
const TfLiteConvParams opdata26 = { kTfLitePaddingValid, 1,1, kTfLiteActNone, 1,1 };
const TfArray<3, int> inputs26 = { 3, { 69,3,2 } };
const TfArray<1, int> outputs26 = { 1, { 70 } };
const TfLiteSoftmaxParams opdata27 = { 1 };
const TfArray<1, int> inputs27 = { 1, { 70 } };
const TfArray<1, int> outputs27 = { 1, { 71 } };
};

TensorInfo_t tensorData[] = {
{ kTfLiteArenaRw, kTfLiteInt8, (int32_t*)(tensor_arena + 0), (TfLiteIntArray*)&g0::tensor_dimension0, 9216, {kTfLiteAffineQuantization, const_cast<void*>(static_cast<const void*>(&g0::quant0))}, },
{ kTfLiteMmapRo, kTfLiteInt32, (int32_t*)g0::tensor_data1, (TfLiteIntArray*)&g0::tensor_dimension1, 32, {kTfLiteNoQuantization, nullptr}, },
{ kTfLiteMmapRo, kTfLiteInt32, (int32_t*)g0::tensor_data2, (TfLiteIntArray*)&g0::tensor_dimension2, 16, {kTfLiteAffineQuantization, const_cast<void*>(static_cast<const void*>(&g0::quant2))}, },
{ kTfLiteMmapRo, kTfLiteInt8, (int32_t*)g0::tensor_data3, (TfLiteIntArray*)&g0::tensor_dimension3, 128, {kTfLiteAffineQuantization, const_cast<void*>(static_cast<const void*>(&g0::quant3))}, },
{ kTfLiteMmapRo, kTfLiteInt32, (int32_t*)g0::tensor_data4, (TfLiteIntArray*)&g0::tensor_dimension4, 128, {kTfLiteAffineQuantization, const_cast<void*>(static_cast<const void*>(&g0::quant4))}, },
{ kTfLiteMmapRo, kTfLiteInt8, (int32_t*)g0::tensor_data5, (TfLiteIntArray*)&g0::tensor_dimension5, 1536, {kTfLiteAffineQuantization, const_cast<void*>(static_cast<const void*>(&g0::quant5))}, },
{ kTfLiteMmapRo, kTfLiteInt32, (int32_t*)g0::tensor_data6, (TfLiteIntArray*)&g0::tensor_dimension6, 192, {kTfLiteAffineQuantization, const_cast<void*>(static_cast<const void*>(&g0::quant6))}, },
{ kTfLiteMmapRo, kTfLiteInt8, (int32_t*)g0::tensor_data7, (TfLiteIntArray*)&g0::tensor_dimension7, 384, {kTfLiteAffineQuantization, const_cast<void*>(static_cast<const void*>(&g0::quant7))}, },
{ kTfLiteMmapRo, kTfLiteInt32, (int32_t*)g0::tensor_data8, (TfLiteIntArray*)&g0::tensor_dimension8, 32, {kTfLiteAffineQuantization, const_cast<void*>(static_cast<const void*>(&g0::quant8))}, },
{ kTfLiteMmapRo, kTfLiteInt8, (int32_t*)g0::tensor_data9, (TfLiteIntArray*)&g0::tensor_dimension9, 384, {kTfLiteAffineQuantization, const_cast<void*>(static_cast<const void*>(&g0::quant9))}, },
